{"config":{"lang":["en"],"prebuild_index":false,"separator":"[\\s\\-]+"},"docs":[{"location":"index.html","text":"Libro para las pr\u00e1cticas de la asignatura Visi\u00f3n por Computador (grado en Ingenier\u00eda Rob\u00f3tica de la Universidad de Alicante). Despliega el men\u00fa de la izquierda para consultar los apuntes.","title":"Home"},{"location":"SUMMARY.html","text":"Summary \u00b6 Instalaci\u00f3n de OpenCV T1- Introducci\u00f3n a OpenCV","title":"Summary"},{"location":"SUMMARY.html#summary","text":"Instalaci\u00f3n de OpenCV T1- Introducci\u00f3n a OpenCV","title":"Summary"},{"location":"caracteristicas.html","text":"T6- Caracter\u00edsticas de imagen \u00b6 En este tema aprenderemos a detectar y extraer caracter\u00edsticas \u00fatiles que describen una imagen. Descriptores de contorno \u00b6 Comenzaremos viendo las caracter\u00edsticas que se usan para describir contornos. Estas caracter\u00edsticas asumen que la imagen se ha binarizado previamente y tenemos el contorno de los objetos que queremos reconocer. Momentos \u00b6 Una vez hemos extraido los contornos de una imagen, por ejemplo mediante la funci\u00f3n findContours , podemos calcular sus momentos usando la funci\u00f3n moments : 1 2 3 4 5 // Extraemos los momentos para cada contorno vector < Moments > momentos ( contours . size ()); for ( int i = 0 ; i < contours . size (); i ++ ) { momentos [ i ] = moments ( contours [ i ], false ); } La funci\u00f3n moments calcula todos los momentos del contorno. Para acceder a un momento determinado podemos indicar, por ejemplo: momentos[i].m00 . Estos son todos los momentos que devuelve la funci\u00f3n: 1 2 3 4 5 6 // Momentos espaciales double m00 , m10 , m01 , m20 , m11 , m02 , m30 , m21 , m12 , m03 ; // Momentos centrales double mu20 , mu11 , mu02 , mu30 , mu21 , mu12 , mu03 ; // Momentos centrales normalizados double nu20 , nu11 , nu02 , nu30 , nu21 , nu12 , nu03 ; Como ves, no todos los momentos se calculan. Por ejemplo, como el momento mu00 es igual a m00, OpenCV no lo extrae . Si quieres conocer m\u00e1s detalles sobre la funci\u00f3n moments puedes consultar este enlace. Momentos de Hu \u00b6 Los 7 momentos de Hu se calculan con la funci\u00f3n HuMoments a partir de los momentos centrales normalizados extra\u00eddos previamente con moments . Por ejemplo: 1 2 3 Moments momentos = moments ( contours [ 0 ]); double hu [ 7 ]; HuMoments ( momentos , hu ); // El array hu contiene los 7 momentos. La funci\u00f3n matchShapes de OpenCV usa internamente estos momentos de Hu para comparar contornos, como veremos m\u00e1s adelante. Cadenas Freeman \u00b6 En OpenCV2 se usaba la funci\u00f3n approxChains para extraer c\u00f3digos de cadena, pero en OpenCV3 se ha eliminado esta funcionalidad por falta de demanda. Descriptor Shape Context (SC) \u00b6 Para extraer y comparar contornos con Shape Context podemos usar el siguiente c\u00f3digo: 1 2 3 4 5 // Creamos una instancia de este descriptor Ptr < ShapeContextDistanceExtractor > mysc = createShapeContextDistanceExtractor (); // Lo aplicamos a los vectores de puntos de dos im\u00e1genes para obtener su distancia. float dis = mysc -> computeDistance ( pointsQuery , pointsRef ); En este ejemplo pointsQuery y pointsRef son vectores de puntos aleatorios del contorno de cada una de las im\u00e1genes que queremos comparar. Ejercicio \u00b6 En este ejercicio extraeremos una serie de descriptores de contorno a partir de im\u00e1genes binarizadas. El objetivo es encontrar las im\u00e1genes m\u00e1s similares a una imagen de referencia (a la que llamaremos query ). Se pide completar el siguiente c\u00f3digo implementando los comentarios marcados con TODO . Crea el programa con el nombre contourDescriptors.cpp . 1 2 3 4 5 6 7 8 9 10 11 12 13 14 15 16 17 18 19 20 21 22 23 24 25 26 27 28 29 30 31 32 33 34 35 36 37 38 39 40 41 42 43 44 45 46 47 48 49 50 51 52 53 54 55 56 57 58 59 60 61 62 63 64 65 66 67 68 69 70 71 72 73 74 75 76 77 78 79 80 81 82 83 84 85 86 87 88 89 90 91 92 93 94 95 96 97 98 99 100 101 102 103 104 105 106 107 108 109 110 111 112 113 114 115 116 117 118 #include <opencv2/opencv.hpp> #include <iostream> using namespace std ; using namespace cv ; struct Descriptors { vector < Point > SC ; float perimetro , compactacion , elongacion , rectangularidad , areaCierreConvexo ; Point centroide ; float orientacion ; double Hu [ 7 ]; }; // Funcion que recibe los contornos de una imagen y extrae de ellos n puntos aleatorios para calcular SC vector < Point > SCPoints ( const vector < vector < Point > > & contours , int n = 300 ) { // Cada contorno dentro de contours es un vector de puntos. Sacamos todos los puntos del contorno y los guardamos en allPointsFromImage vector < Point > allPointsFromImage ; for ( unsigned j = 0 ; j < contours . size (); j ++ ) for ( int k = 0 ; k < contours [ j ]. size (); k ++ ) allPointsFromImage . push_back ( contours [ j ][ k ]); // \"Barajamos\" los puntos aleatoriamente, y nos quedamos como maximo con n=300 para usarlos con SC random_shuffle ( allPointsFromImage . begin (), allPointsFromImage . end ()); vector < Point > points ; for ( int i = 0 ; i < n && i < allPointsFromImage . size (); i ++ ) points . push_back ( allPointsFromImage [ i ]); return points ; } Descriptors extractDescriptors ( const Mat & image ) { Descriptors imgDescriptors ; // Calculamos todos los contornos de la imagen vector < vector < Point > > contours ; findContours ( image , contours , RETR_LIST , CHAIN_APPROX_NONE ); // Extraemos puntos aleatorios de estos contornos para SC y los guardamos en el descriptor imgDescriptors . SC = SCPoints ( contours ); // TODO: Extraemos el mayor contorno de la imagen (para esto puedes usar la funci\u00f3n contourArea), y de este contorno calculamos y guardamos en el descriptor: // - Perimetro // - Compactaci\u00f3n // - Elongacion (usando caja de Feret) // - Rectangularidad (usando Menor Rect\u00e1ngulo Envolvente, MRE) // - Area del cierre convexo (pista: funcion convexHull); // - Centroide (X,Y) y orientacion (usando los momentos) // - Momentos de Hu return imgDescriptors ; } void calcularDistancias ( const Descriptors & queryDescriptors , const Descriptors & imgDescriptors ) { float dSC , dPer , dComp , dElong , dRect , dCierre , dCent , dOr , dHu ; dSC = dPer = dComp = dElong = dRect = dCierre = dCent = dOr = dHu = 0 ; // TODO: Calcular y devolver la distancia de: // - SC // - Perimetro // - Compactacion // - Elongacion // - Rectangularidad // - Area del cierre convexo // - Orientaci\u00f3n // - Centroide (distancia Euclidea entre los dos puntos con coordenadas u,v) // - Hu (formula explicada en los siguientes parrafos del libro) cout << \" dSC = \" << dSC << endl ; cout << \" dPer = \" << dPer << endl ; cout << \" dComp = \" << dComp << endl ; cout << \" dElong = \" << dElong << endl ; cout << \" dRect = \" << dRect << endl ; cout << \" dCierre = \" << dCierre << endl ; cout << \" dCent = \" << dCent << endl ; cout << \" dOr = \" << dOr << endl ; cout << \" dHu = \" << dHu << endl ; } int main ( int argc , char * argv []) { // Procesamos par\u00e1metros de entrada string path = \"shape_sample/\" ; int indexQuery = 5 ; if ( argc == 2 ) indexQuery = atoi ( argv [ 1 ]); // Leemos imagen query stringstream queryName ; queryName << path << indexQuery << \".png\" ; Mat query = imread ( queryName . str (), IMREAD_GRAYSCALE ); // Calculamos sus descriptores Descriptors queryDescriptors = extractDescriptors ( query ); // Para las otras im\u00e1genes, calculamos sus descriptores y los comparamos con los de la query for ( int i = 0 ; i < 20 ; i ++ ) { int imageIndex = i + 1 ; if ( imageIndex == indexQuery ) continue ; // Ignoramos esta imagen si es la misma que la de referencia // Leemos la imagen stringstream img ; img << path << imageIndex << \".png\" ; Mat image = imread ( img . str (), IMREAD_GRAYSCALE ); // Extraemos sus descriptores y los comparamos con los de la query cout << \"-----------\" << endl ; cout << \"Imagen \" << imageIndex << \":\" << endl ; Descriptors imgDescriptors = extractDescriptors ( image ); calcularDistancias ( queryDescriptors , imgDescriptors ); } return 0 ; } En este ejercicio necesitar\u00e1s descargarte estas im\u00e1genes , que debes descomprimir en un directorio llamado shape_sample . Para extraer los descriptores puedes usar algunas de estas funciones de OpenCV. En el c\u00e1lculo de la arcotangente (para la orientaci\u00f3n) debes usar la funci\u00f3n atan2 en lugar de atan , ya que esta \u00faltima no calcula los valores en los cuatro cuadrantes. Cuando vayamos a calcular la distancia entre dos n\u00fameros float , debemos usar el valor absoluto de su diferencia. En el caso del centroide (que es un punto con sus coordenadas u,v ), deberemos calcular la distancia Eucl\u00eddea entre los dos puntos. Para calcular las distancias de los descriptores Hu debes usar las siguientes ecuaciones: donde A y B son las dos im\u00e1genes a comparar, y m se define como: En este caso, sign es el signo (-1 si es negativo, 1 si es positivo, 0 si es 0), y h son los momentos Hu n\u00famero i . S\u00f3lo debe sumarse un momento i si sus componentes son mayores que un umbral 1.e-5. Es decir, si el valor absoluto del descriptor Hu n\u00famero i es mayor de 1.e-5 en ambas im\u00e1genes (con que en una sea menor, no se considera). En C++, el logaritmo se calcula con la funci\u00f3n log10 , ya que si se usa log se calcula el neperiano (que no es el que necesitamos en este caso). Este es el c\u00e1lculo que hace internamente el m\u00e9todo matchShapes de OpenCV (algoritmo CV_CONTOURS_MATCH_I1 ) para comparar contornos, pero en este ejercicio tienes que implementarlo a mano. La salida del programa debe ser como la siguiente (si no indicamos ning\u00fan par\u00e1metro, por defecto se usa la imagen n\u00famero 5): 1 2 3 4 5 6 7 8 9 10 11 12 13 14 15 16 17 18 19 20 21 22 23 24 25 26 27 28 29 30 31 32 33 34 35 36 37 38 39 40 41 42 43 44 45 46 47 48 49 50 51 52 53 54 55 56 57 ----------- Imagen 1 : dSC = 3 .80077 dPer = 182 .51 dComp = 0 .00770215 dElong = 0 .291582 dRect = 0 .306735 dCierre = 8402 dCent = 16 .0312 dOr = 0 .0885252 dHu = 1 .45363 ----------- Imagen 2 : dSC = 12 .0485 dPer = 46 .1005 dComp = 0 .0200697 dElong = 0 .164082 dRect = 0 .301422 dCierre = 4529 dCent = 40 .4969 dOr = 0 .300745 dHu = 1 .36698 ----------- Imagen 3 : dSC = 9721 .32 dPer = 1556 .14 dComp = 0 .0214209 dElong = 0 .18013 dRect = 0 .0153487 dCierre = 110849 dCent = 258 .258 dOr = 0 .224014 dHu = 0 .228529 ----------- Imagen 4 : dSC = 16396 .2 dPer = 1531 .7 dComp = 0 .0176636 dElong = 0 .463282 dRect = 0 .0691208 dCierre = 107572 dCent = 334 .63 dOr = 0 .349207 dHu = 1 .65752 ----------- Imagen 6 : dSC = 0 .267693 dPer = 114 .953 dComp = 0 .00107794 dElong = 0 .0877844 dRect = 0 .00407889 dCierre = 5869 .5 dCent = 37 .1214 dOr = 0 .113083 dHu = 0 .184812 ----------- .... Si tienes OpenCV para Mac, hay un bug en el comparador de SC que har\u00e1 que salgan valores muy altos para la variable dSC . Si esto ocurre, prueba tu programa en Linux antes de la entrega. Revisa los resultados probando con distintas im\u00e1genes, cuando menor sea la distancia m\u00e1s se parecer\u00e1n. Evidentemente, algunos descriptores funcionar\u00e1n mucho mejor que otros. Textura \u00b6 Los filtros de Gabor se implementan en OpenCV creando un kernel mediante la funci\u00f3n getGaborKernel , y despu\u00e9s convolucion\u00e1ndolo con filter2D como ocurre con cualquier otro filtro. 1 2 3 double sigma = 1 , theta = 0 , lambda = 1.0 , gm = 0.02 , ps = 0 ; Mat kernel = getGaborKernel ( Size ( ksize , ksize ), sigma , theta , lambda , gm , ps ); filter2D ( src_f , dest , CV_32F , kernel ); Como puedes ver, un filtro de Gabor se puede construir con muchos par\u00e1metros, pero los principales son estos: ksize : Tama\u00f1o del filtro sigma : Desviaci\u00f3n t\u00edpica de la envolvente gaussiana theta : Orientaci\u00f3n de las bandas paralelas de la funci\u00f3n Gabor lambda : Longitud de onda de la se\u00f1al sinusoidal HOG \u00b6 En OpenCV podemos extraer el descriptor HOG mediante HOGDescriptor : 1 HOGDescriptor hog ( Size ( 32 , 16 ), Size ( 8 , 8 ), Size ( 4 , 4 ), Size ( 4 , 4 ), 9 ); La ayuda de OpenCV es bastante incompleta para este descriptor. Por simplificar, los par\u00e1metros principales del constructor (aunque hay m\u00e1s) son estos: winSize : Tama\u00f1o de la ventana Size : Tama\u00f1o del bloque blockStride : Desplazamiento del bloque cellSize : Tama\u00f1o de la celda Tambi\u00e9n podemos crear un descriptor HOG con los valores que vienen por defecto: 1 2 HogDescriptor hog ; // Equivalente a: HOGDescriptor hog(Size(64,128), Size(16,16), Size(8,8), Size(8,8), 9); Es necesario saber que, a diferencia del algoritmo que hemos visto en teor\u00eda, en la implementaci\u00f3n de OpenCV hay una ventana que va movi\u00e9ndose por toda la imagen para calcular los descriptores HOG. Como podemos ver, el tama\u00f1o de la ventana por defecto es de 64x128 p\u00edxeles, lo cual significa que los objetos a detectar deben tener al menos ese tama\u00f1o. Si trabajamos con resoluciones menores, deberemos cambiarlo. La longitud por defecto del vector HOG (que podemos ver usando el m\u00e9todo hog.getDescriptorSize ) es de 3.780 elementos por cada descriptor. El m\u00e9todo features.size devuelve el tama\u00f1o del descriptor HOG para toda la imagen (el descriptor global). Una vez creado el descriptor podemos aplicarlo a una imagen: 1 2 3 vector < float > descriptorsValues ; vector < Point > locations ; d . compute ( img_gray , descriptorsValues , Size ( 0 , 0 ), Size ( 0 , 0 ), locations ); La funci\u00f3n compute devuelve en locations los puntos donde se han encontrado las personas, y en descriptorsValues los valores del descriptor para cada punto. Para calcular esto se usa un sistema de detecci\u00f3n de peatones, que veremos en el tema 7. Si en lugar de extraer el descriptor queremos directamente hacer la detecci\u00f3n de personas en una imagen (que es lo normal), se puede usar directamente este c\u00f3digo: 1 2 3 4 5 6 // La siguiente instrucci\u00f3n inicializa un detector de personas. // No hemos visto este detector en teor\u00eda porque est\u00e1 basado en aprendizaje autom\u00e1tico (algo que veremos m\u00e1s adelante), pero s\u00ed que hemos visto el descriptor. hog . setSVMDetector ( HOGDescriptor :: getDefaultPeopleDetector ()); // Aplicamos el detector sobre la imagen hog . detectMultiScale ( img , found , 0 , Size ( 8 , 8 ), Size ( 32 , 32 ), 1.05 , 2 ); Desafortunadamente no hay ninguna forma sencilla de visualizar el descriptor HOG en OpenCV con sus gradientes, pero si tienes curiosidad puedes consultar este otro enlace . Puedes ver un ejemplo de detecci\u00f3n de peatones en v\u00eddeos usando HOG en este enlace . Caracter\u00edsticas locales \u00b6 Las caracter\u00edsticas locales son f\u00e1ciles de obtener en OpenCV, ya que esta librer\u00eda implementa todo lo necesario para detectar keypoints y extraer sus correspondientes descriptores. Detector \u00b6 Ejemplo de detecci\u00f3n usando MSER: 1 2 3 4 5 6 7 8 9 10 11 12 13 14 15 16 17 18 19 20 21 22 23 24 25 26 27 28 29 30 31 32 33 34 35 36 37 #include <iostream> #include <opencv2/opencv.hpp> using namespace std ; using namespace cv ; int main ( int argc , char * argv []) { if ( argc != 2 ) { cout << \" Syntax: .\" << argv [ 0 ] << \" <image>\" << endl ; return - 1 ; } Mat img = imread ( argv [ 1 ], IMREAD_GRAYSCALE ); if ( ! img . data ){ cout << \"Error leyendo imagen \" << argv [ 1 ] << endl ; return - 1 ; } // Detectamos los keypoints usando MSER. Los guardamos en el vector keypoints Ptr < FeatureDetector > detector = MSER :: create (); vector < KeyPoint > keypoints ; detector -> detect ( img , keypoints ); // Dibujamos los keypoints en la imagen Mat img_keypoints ; drawKeypoints ( img , keypoints , img_keypoints , Scalar :: all ( - 1 ), DrawMatchesFlags :: DEFAULT ); // Mostramos la imagen con los keypoints imshow ( \"Keypoints\" , img_keypoints ); waitKey ( 0 ); return 0 ; } Descriptor \u00b6 Veamos otro ejemplo, esta vez usando ORB como detector y tambi\u00e9n como descriptor. En este c\u00f3digo, adem\u00e1s comparamos los descriptores binarios usando una distancia Hamming. Las correspondencias que devuelve match en la variable matches son las parejas de puntos m\u00e1s similares entre la primera y la segunda imagen. 1 2 3 4 5 6 7 8 9 10 11 12 13 14 15 16 17 18 19 20 21 22 23 24 25 26 27 28 29 30 31 32 33 34 35 36 37 38 39 40 41 42 43 44 45 46 47 48 49 50 51 52 53 54 55 56 57 58 59 60 #include <iostream> #include <vector> #include <opencv2/opencv.hpp> using namespace cv ; using namespace std ; int main ( int argc , char * argv []) { if ( argc != 3 ) { cout << \"Syntax: \" << argv [ 0 ] << \" <image1> <image2>\" << endl ; exit ( - 1 ); } // Leemos las imagenes Mat image1 = imread ( argv [ 1 ], IMREAD_GRAYSCALE ); Mat image2 = imread ( argv [ 2 ], IMREAD_GRAYSCALE ); // Creamos el detector ORB con 100 puntos como maximo Ptr < FeatureDetector > detector = ORB :: create ( 100 ); // Usamos ORB para detectar los keypoints vector < KeyPoint > keypoints1 , keypoints2 ; detector -> detect ( image1 , keypoints1 ); detector -> detect ( image2 , keypoints2 ); // Dibujamos los keypoints de la imagen1 Mat featImage ; drawKeypoints ( image1 , keypoints1 , featImage , Scalar ( 255 , 255 , 255 ), DrawMatchesFlags :: DRAW_RICH_KEYPOINTS ); namedWindow ( \"ORB\" ); imshow ( \"ORB\" , featImage ); // Ademas del detector, ORB incluye el descriptor, que aplicamos a continuacion Ptr < DescriptorExtractor > descriptor = detector ; Mat descriptors1 , descriptors2 ; descriptor -> compute ( image1 , keypoints1 , descriptors1 ); descriptor -> compute ( image2 , keypoints2 , descriptors2 ); // En este punto hacemos matching (mirar los keypoints coincidentes en ambas imagenes). Creamos el matcher. BFMatcher matcher ( NORM_HAMMING ); // Al ser un descriptor binario, debemos usar la distancia de Hamming // Lo aplicamos a los descriptores para obtener el vector matches. vector < DMatch > matches ; matcher . match ( descriptors1 , descriptors2 , matches ); // Dibujamos los matches Mat imageMatches ; drawMatches ( image1 , keypoints1 , image2 , keypoints2 , matches , imageMatches , // Imagen donde guardamos el resultado Scalar ( 255 , 255 , 255 ), // color de las lineas Scalar ( 255 , 255 , 255 )); // color de los puntos // Mostramos el resultado namedWindow ( \"ORB Matches\" ); imshow ( \"ORB Matches\" , imageMatches ); cout << \"Numero de matches: \" << matches . size () << endl ; waitKey (); return 0 ; } Resultado de ejecuci\u00f3n: 1 ./binary USCPedestrianSetB/OSE1cor_1.bmp USCPedestrianSetB/OSE1cor_2.bmp Como puedes ver, usamos Ptr<FeatureDetector> para crear un detector, y a continuaci\u00f3n la funci\u00f3n detect para realizar la detecci\u00f3n. An\u00e1logamente, podemos usar Ptr<DescriptorExtractor> para crear un descriptor, seguido de una llamada a compute para calcularlo. Puedes consultar en la ayuda todos los detectores y descriptores que implementa OpenCV. Adem\u00e1s de estos, podemos usar otros detectores o descriptores externos como SURF. Tanto SIFT como SURF est\u00e1n patentados, por lo que para usarlos necesitamos importar el m\u00f3dulo opencv_contrib/xfeatures2d y aceptar su licencia. Descriptores neuronales \u00b6 Como hemos visto en teor\u00eda, tambi\u00e9n podemos usar una red neuronal convolucional (CNN) para extraer una representaci\u00f3n vectorial de una imagen. Para ver c\u00f3mo funciona una red neuronal de la librer\u00eda Caffe (una de las muchas librer\u00edas de redes) en OpenCV se puede consultar este c\u00f3digo de ejemplo . Para poder usarlo, tambi\u00e9n necesitamos descargar los pesos de la red neuronal . Si compilamos caffe_googlenet.cpp y lo ejecutamos, se cargar\u00e1 una red de tipo GoogleNet ya entrenada con millones de im\u00e1genes de ImageNet . Dada una nueva imagen de entrada, esta se rescala y se proporciona a la red neuronal que predice la clase de dicha imagen. Las clases que pueden obtenerse son s\u00f3lo aquellas para las que se ha entrenado la red, que pueden consultarse en el fichero synset_words.txt . Sin embargo, tambi\u00e9n podemos usar la red como extractor de caracter\u00edsticas. Para ello, en lugar de usar la \u00faltima capa (la que realiza la clasificaci\u00f3n), debemos quedarnos con los valores de la pen\u00faltima capa, que en este caso se llama pool5/7x7_s1 . Por tanto, podemos remplazar la instrucci\u00f3n: 1 prob = net . forward ( \"prob\" ); por: 1 Mat neuralCodes = net . forward ( \"pool5/7x7_s1\" ); Despu\u00e9s hay que convertir la matriz neuralCodes a un vector de float (por ejemplo usando la siguiente funci\u00f3n), y ya tendremos nuestro descriptor neuronal que podemos usar como entrada a otro sistema de aprendizaje autom\u00e1tico como kNN o SVM. 1 2 3 4 5 6 7 vector < float > matToFloatVector ( Mat matToConvert ) { vector < float > convert ; convert . assign (( float * ) matToConvert . datastart , ( float * ) matToConvert . dataend ); return convert ; }","title":"T6- Caracter\u00edsticas"},{"location":"caracteristicas.html#t6-caracteristicas-de-imagen","text":"En este tema aprenderemos a detectar y extraer caracter\u00edsticas \u00fatiles que describen una imagen.","title":"T6- Caracter\u00edsticas de imagen"},{"location":"caracteristicas.html#descriptores-de-contorno","text":"Comenzaremos viendo las caracter\u00edsticas que se usan para describir contornos. Estas caracter\u00edsticas asumen que la imagen se ha binarizado previamente y tenemos el contorno de los objetos que queremos reconocer.","title":"Descriptores de contorno"},{"location":"caracteristicas.html#momentos","text":"Una vez hemos extraido los contornos de una imagen, por ejemplo mediante la funci\u00f3n findContours , podemos calcular sus momentos usando la funci\u00f3n moments : 1 2 3 4 5 // Extraemos los momentos para cada contorno vector < Moments > momentos ( contours . size ()); for ( int i = 0 ; i < contours . size (); i ++ ) { momentos [ i ] = moments ( contours [ i ], false ); } La funci\u00f3n moments calcula todos los momentos del contorno. Para acceder a un momento determinado podemos indicar, por ejemplo: momentos[i].m00 . Estos son todos los momentos que devuelve la funci\u00f3n: 1 2 3 4 5 6 // Momentos espaciales double m00 , m10 , m01 , m20 , m11 , m02 , m30 , m21 , m12 , m03 ; // Momentos centrales double mu20 , mu11 , mu02 , mu30 , mu21 , mu12 , mu03 ; // Momentos centrales normalizados double nu20 , nu11 , nu02 , nu30 , nu21 , nu12 , nu03 ; Como ves, no todos los momentos se calculan. Por ejemplo, como el momento mu00 es igual a m00, OpenCV no lo extrae . Si quieres conocer m\u00e1s detalles sobre la funci\u00f3n moments puedes consultar este enlace.","title":"Momentos"},{"location":"caracteristicas.html#momentos-de-hu","text":"Los 7 momentos de Hu se calculan con la funci\u00f3n HuMoments a partir de los momentos centrales normalizados extra\u00eddos previamente con moments . Por ejemplo: 1 2 3 Moments momentos = moments ( contours [ 0 ]); double hu [ 7 ]; HuMoments ( momentos , hu ); // El array hu contiene los 7 momentos. La funci\u00f3n matchShapes de OpenCV usa internamente estos momentos de Hu para comparar contornos, como veremos m\u00e1s adelante.","title":"Momentos de Hu"},{"location":"caracteristicas.html#cadenas-freeman","text":"En OpenCV2 se usaba la funci\u00f3n approxChains para extraer c\u00f3digos de cadena, pero en OpenCV3 se ha eliminado esta funcionalidad por falta de demanda.","title":"Cadenas Freeman"},{"location":"caracteristicas.html#descriptor-shape-context-sc","text":"Para extraer y comparar contornos con Shape Context podemos usar el siguiente c\u00f3digo: 1 2 3 4 5 // Creamos una instancia de este descriptor Ptr < ShapeContextDistanceExtractor > mysc = createShapeContextDistanceExtractor (); // Lo aplicamos a los vectores de puntos de dos im\u00e1genes para obtener su distancia. float dis = mysc -> computeDistance ( pointsQuery , pointsRef ); En este ejemplo pointsQuery y pointsRef son vectores de puntos aleatorios del contorno de cada una de las im\u00e1genes que queremos comparar.","title":"Descriptor Shape Context (SC)"},{"location":"caracteristicas.html#ejercicio","text":"En este ejercicio extraeremos una serie de descriptores de contorno a partir de im\u00e1genes binarizadas. El objetivo es encontrar las im\u00e1genes m\u00e1s similares a una imagen de referencia (a la que llamaremos query ). Se pide completar el siguiente c\u00f3digo implementando los comentarios marcados con TODO . Crea el programa con el nombre contourDescriptors.cpp . 1 2 3 4 5 6 7 8 9 10 11 12 13 14 15 16 17 18 19 20 21 22 23 24 25 26 27 28 29 30 31 32 33 34 35 36 37 38 39 40 41 42 43 44 45 46 47 48 49 50 51 52 53 54 55 56 57 58 59 60 61 62 63 64 65 66 67 68 69 70 71 72 73 74 75 76 77 78 79 80 81 82 83 84 85 86 87 88 89 90 91 92 93 94 95 96 97 98 99 100 101 102 103 104 105 106 107 108 109 110 111 112 113 114 115 116 117 118 #include <opencv2/opencv.hpp> #include <iostream> using namespace std ; using namespace cv ; struct Descriptors { vector < Point > SC ; float perimetro , compactacion , elongacion , rectangularidad , areaCierreConvexo ; Point centroide ; float orientacion ; double Hu [ 7 ]; }; // Funcion que recibe los contornos de una imagen y extrae de ellos n puntos aleatorios para calcular SC vector < Point > SCPoints ( const vector < vector < Point > > & contours , int n = 300 ) { // Cada contorno dentro de contours es un vector de puntos. Sacamos todos los puntos del contorno y los guardamos en allPointsFromImage vector < Point > allPointsFromImage ; for ( unsigned j = 0 ; j < contours . size (); j ++ ) for ( int k = 0 ; k < contours [ j ]. size (); k ++ ) allPointsFromImage . push_back ( contours [ j ][ k ]); // \"Barajamos\" los puntos aleatoriamente, y nos quedamos como maximo con n=300 para usarlos con SC random_shuffle ( allPointsFromImage . begin (), allPointsFromImage . end ()); vector < Point > points ; for ( int i = 0 ; i < n && i < allPointsFromImage . size (); i ++ ) points . push_back ( allPointsFromImage [ i ]); return points ; } Descriptors extractDescriptors ( const Mat & image ) { Descriptors imgDescriptors ; // Calculamos todos los contornos de la imagen vector < vector < Point > > contours ; findContours ( image , contours , RETR_LIST , CHAIN_APPROX_NONE ); // Extraemos puntos aleatorios de estos contornos para SC y los guardamos en el descriptor imgDescriptors . SC = SCPoints ( contours ); // TODO: Extraemos el mayor contorno de la imagen (para esto puedes usar la funci\u00f3n contourArea), y de este contorno calculamos y guardamos en el descriptor: // - Perimetro // - Compactaci\u00f3n // - Elongacion (usando caja de Feret) // - Rectangularidad (usando Menor Rect\u00e1ngulo Envolvente, MRE) // - Area del cierre convexo (pista: funcion convexHull); // - Centroide (X,Y) y orientacion (usando los momentos) // - Momentos de Hu return imgDescriptors ; } void calcularDistancias ( const Descriptors & queryDescriptors , const Descriptors & imgDescriptors ) { float dSC , dPer , dComp , dElong , dRect , dCierre , dCent , dOr , dHu ; dSC = dPer = dComp = dElong = dRect = dCierre = dCent = dOr = dHu = 0 ; // TODO: Calcular y devolver la distancia de: // - SC // - Perimetro // - Compactacion // - Elongacion // - Rectangularidad // - Area del cierre convexo // - Orientaci\u00f3n // - Centroide (distancia Euclidea entre los dos puntos con coordenadas u,v) // - Hu (formula explicada en los siguientes parrafos del libro) cout << \" dSC = \" << dSC << endl ; cout << \" dPer = \" << dPer << endl ; cout << \" dComp = \" << dComp << endl ; cout << \" dElong = \" << dElong << endl ; cout << \" dRect = \" << dRect << endl ; cout << \" dCierre = \" << dCierre << endl ; cout << \" dCent = \" << dCent << endl ; cout << \" dOr = \" << dOr << endl ; cout << \" dHu = \" << dHu << endl ; } int main ( int argc , char * argv []) { // Procesamos par\u00e1metros de entrada string path = \"shape_sample/\" ; int indexQuery = 5 ; if ( argc == 2 ) indexQuery = atoi ( argv [ 1 ]); // Leemos imagen query stringstream queryName ; queryName << path << indexQuery << \".png\" ; Mat query = imread ( queryName . str (), IMREAD_GRAYSCALE ); // Calculamos sus descriptores Descriptors queryDescriptors = extractDescriptors ( query ); // Para las otras im\u00e1genes, calculamos sus descriptores y los comparamos con los de la query for ( int i = 0 ; i < 20 ; i ++ ) { int imageIndex = i + 1 ; if ( imageIndex == indexQuery ) continue ; // Ignoramos esta imagen si es la misma que la de referencia // Leemos la imagen stringstream img ; img << path << imageIndex << \".png\" ; Mat image = imread ( img . str (), IMREAD_GRAYSCALE ); // Extraemos sus descriptores y los comparamos con los de la query cout << \"-----------\" << endl ; cout << \"Imagen \" << imageIndex << \":\" << endl ; Descriptors imgDescriptors = extractDescriptors ( image ); calcularDistancias ( queryDescriptors , imgDescriptors ); } return 0 ; } En este ejercicio necesitar\u00e1s descargarte estas im\u00e1genes , que debes descomprimir en un directorio llamado shape_sample . Para extraer los descriptores puedes usar algunas de estas funciones de OpenCV. En el c\u00e1lculo de la arcotangente (para la orientaci\u00f3n) debes usar la funci\u00f3n atan2 en lugar de atan , ya que esta \u00faltima no calcula los valores en los cuatro cuadrantes. Cuando vayamos a calcular la distancia entre dos n\u00fameros float , debemos usar el valor absoluto de su diferencia. En el caso del centroide (que es un punto con sus coordenadas u,v ), deberemos calcular la distancia Eucl\u00eddea entre los dos puntos. Para calcular las distancias de los descriptores Hu debes usar las siguientes ecuaciones: donde A y B son las dos im\u00e1genes a comparar, y m se define como: En este caso, sign es el signo (-1 si es negativo, 1 si es positivo, 0 si es 0), y h son los momentos Hu n\u00famero i . S\u00f3lo debe sumarse un momento i si sus componentes son mayores que un umbral 1.e-5. Es decir, si el valor absoluto del descriptor Hu n\u00famero i es mayor de 1.e-5 en ambas im\u00e1genes (con que en una sea menor, no se considera). En C++, el logaritmo se calcula con la funci\u00f3n log10 , ya que si se usa log se calcula el neperiano (que no es el que necesitamos en este caso). Este es el c\u00e1lculo que hace internamente el m\u00e9todo matchShapes de OpenCV (algoritmo CV_CONTOURS_MATCH_I1 ) para comparar contornos, pero en este ejercicio tienes que implementarlo a mano. La salida del programa debe ser como la siguiente (si no indicamos ning\u00fan par\u00e1metro, por defecto se usa la imagen n\u00famero 5): 1 2 3 4 5 6 7 8 9 10 11 12 13 14 15 16 17 18 19 20 21 22 23 24 25 26 27 28 29 30 31 32 33 34 35 36 37 38 39 40 41 42 43 44 45 46 47 48 49 50 51 52 53 54 55 56 57 ----------- Imagen 1 : dSC = 3 .80077 dPer = 182 .51 dComp = 0 .00770215 dElong = 0 .291582 dRect = 0 .306735 dCierre = 8402 dCent = 16 .0312 dOr = 0 .0885252 dHu = 1 .45363 ----------- Imagen 2 : dSC = 12 .0485 dPer = 46 .1005 dComp = 0 .0200697 dElong = 0 .164082 dRect = 0 .301422 dCierre = 4529 dCent = 40 .4969 dOr = 0 .300745 dHu = 1 .36698 ----------- Imagen 3 : dSC = 9721 .32 dPer = 1556 .14 dComp = 0 .0214209 dElong = 0 .18013 dRect = 0 .0153487 dCierre = 110849 dCent = 258 .258 dOr = 0 .224014 dHu = 0 .228529 ----------- Imagen 4 : dSC = 16396 .2 dPer = 1531 .7 dComp = 0 .0176636 dElong = 0 .463282 dRect = 0 .0691208 dCierre = 107572 dCent = 334 .63 dOr = 0 .349207 dHu = 1 .65752 ----------- Imagen 6 : dSC = 0 .267693 dPer = 114 .953 dComp = 0 .00107794 dElong = 0 .0877844 dRect = 0 .00407889 dCierre = 5869 .5 dCent = 37 .1214 dOr = 0 .113083 dHu = 0 .184812 ----------- .... Si tienes OpenCV para Mac, hay un bug en el comparador de SC que har\u00e1 que salgan valores muy altos para la variable dSC . Si esto ocurre, prueba tu programa en Linux antes de la entrega. Revisa los resultados probando con distintas im\u00e1genes, cuando menor sea la distancia m\u00e1s se parecer\u00e1n. Evidentemente, algunos descriptores funcionar\u00e1n mucho mejor que otros.","title":"Ejercicio"},{"location":"caracteristicas.html#textura","text":"Los filtros de Gabor se implementan en OpenCV creando un kernel mediante la funci\u00f3n getGaborKernel , y despu\u00e9s convolucion\u00e1ndolo con filter2D como ocurre con cualquier otro filtro. 1 2 3 double sigma = 1 , theta = 0 , lambda = 1.0 , gm = 0.02 , ps = 0 ; Mat kernel = getGaborKernel ( Size ( ksize , ksize ), sigma , theta , lambda , gm , ps ); filter2D ( src_f , dest , CV_32F , kernel ); Como puedes ver, un filtro de Gabor se puede construir con muchos par\u00e1metros, pero los principales son estos: ksize : Tama\u00f1o del filtro sigma : Desviaci\u00f3n t\u00edpica de la envolvente gaussiana theta : Orientaci\u00f3n de las bandas paralelas de la funci\u00f3n Gabor lambda : Longitud de onda de la se\u00f1al sinusoidal","title":"Textura"},{"location":"caracteristicas.html#hog","text":"En OpenCV podemos extraer el descriptor HOG mediante HOGDescriptor : 1 HOGDescriptor hog ( Size ( 32 , 16 ), Size ( 8 , 8 ), Size ( 4 , 4 ), Size ( 4 , 4 ), 9 ); La ayuda de OpenCV es bastante incompleta para este descriptor. Por simplificar, los par\u00e1metros principales del constructor (aunque hay m\u00e1s) son estos: winSize : Tama\u00f1o de la ventana Size : Tama\u00f1o del bloque blockStride : Desplazamiento del bloque cellSize : Tama\u00f1o de la celda Tambi\u00e9n podemos crear un descriptor HOG con los valores que vienen por defecto: 1 2 HogDescriptor hog ; // Equivalente a: HOGDescriptor hog(Size(64,128), Size(16,16), Size(8,8), Size(8,8), 9); Es necesario saber que, a diferencia del algoritmo que hemos visto en teor\u00eda, en la implementaci\u00f3n de OpenCV hay una ventana que va movi\u00e9ndose por toda la imagen para calcular los descriptores HOG. Como podemos ver, el tama\u00f1o de la ventana por defecto es de 64x128 p\u00edxeles, lo cual significa que los objetos a detectar deben tener al menos ese tama\u00f1o. Si trabajamos con resoluciones menores, deberemos cambiarlo. La longitud por defecto del vector HOG (que podemos ver usando el m\u00e9todo hog.getDescriptorSize ) es de 3.780 elementos por cada descriptor. El m\u00e9todo features.size devuelve el tama\u00f1o del descriptor HOG para toda la imagen (el descriptor global). Una vez creado el descriptor podemos aplicarlo a una imagen: 1 2 3 vector < float > descriptorsValues ; vector < Point > locations ; d . compute ( img_gray , descriptorsValues , Size ( 0 , 0 ), Size ( 0 , 0 ), locations ); La funci\u00f3n compute devuelve en locations los puntos donde se han encontrado las personas, y en descriptorsValues los valores del descriptor para cada punto. Para calcular esto se usa un sistema de detecci\u00f3n de peatones, que veremos en el tema 7. Si en lugar de extraer el descriptor queremos directamente hacer la detecci\u00f3n de personas en una imagen (que es lo normal), se puede usar directamente este c\u00f3digo: 1 2 3 4 5 6 // La siguiente instrucci\u00f3n inicializa un detector de personas. // No hemos visto este detector en teor\u00eda porque est\u00e1 basado en aprendizaje autom\u00e1tico (algo que veremos m\u00e1s adelante), pero s\u00ed que hemos visto el descriptor. hog . setSVMDetector ( HOGDescriptor :: getDefaultPeopleDetector ()); // Aplicamos el detector sobre la imagen hog . detectMultiScale ( img , found , 0 , Size ( 8 , 8 ), Size ( 32 , 32 ), 1.05 , 2 ); Desafortunadamente no hay ninguna forma sencilla de visualizar el descriptor HOG en OpenCV con sus gradientes, pero si tienes curiosidad puedes consultar este otro enlace . Puedes ver un ejemplo de detecci\u00f3n de peatones en v\u00eddeos usando HOG en este enlace .","title":"HOG"},{"location":"caracteristicas.html#caracteristicas-locales","text":"Las caracter\u00edsticas locales son f\u00e1ciles de obtener en OpenCV, ya que esta librer\u00eda implementa todo lo necesario para detectar keypoints y extraer sus correspondientes descriptores.","title":"Caracter\u00edsticas locales"},{"location":"caracteristicas.html#detector","text":"Ejemplo de detecci\u00f3n usando MSER: 1 2 3 4 5 6 7 8 9 10 11 12 13 14 15 16 17 18 19 20 21 22 23 24 25 26 27 28 29 30 31 32 33 34 35 36 37 #include <iostream> #include <opencv2/opencv.hpp> using namespace std ; using namespace cv ; int main ( int argc , char * argv []) { if ( argc != 2 ) { cout << \" Syntax: .\" << argv [ 0 ] << \" <image>\" << endl ; return - 1 ; } Mat img = imread ( argv [ 1 ], IMREAD_GRAYSCALE ); if ( ! img . data ){ cout << \"Error leyendo imagen \" << argv [ 1 ] << endl ; return - 1 ; } // Detectamos los keypoints usando MSER. Los guardamos en el vector keypoints Ptr < FeatureDetector > detector = MSER :: create (); vector < KeyPoint > keypoints ; detector -> detect ( img , keypoints ); // Dibujamos los keypoints en la imagen Mat img_keypoints ; drawKeypoints ( img , keypoints , img_keypoints , Scalar :: all ( - 1 ), DrawMatchesFlags :: DEFAULT ); // Mostramos la imagen con los keypoints imshow ( \"Keypoints\" , img_keypoints ); waitKey ( 0 ); return 0 ; }","title":"Detector"},{"location":"caracteristicas.html#descriptor","text":"Veamos otro ejemplo, esta vez usando ORB como detector y tambi\u00e9n como descriptor. En este c\u00f3digo, adem\u00e1s comparamos los descriptores binarios usando una distancia Hamming. Las correspondencias que devuelve match en la variable matches son las parejas de puntos m\u00e1s similares entre la primera y la segunda imagen. 1 2 3 4 5 6 7 8 9 10 11 12 13 14 15 16 17 18 19 20 21 22 23 24 25 26 27 28 29 30 31 32 33 34 35 36 37 38 39 40 41 42 43 44 45 46 47 48 49 50 51 52 53 54 55 56 57 58 59 60 #include <iostream> #include <vector> #include <opencv2/opencv.hpp> using namespace cv ; using namespace std ; int main ( int argc , char * argv []) { if ( argc != 3 ) { cout << \"Syntax: \" << argv [ 0 ] << \" <image1> <image2>\" << endl ; exit ( - 1 ); } // Leemos las imagenes Mat image1 = imread ( argv [ 1 ], IMREAD_GRAYSCALE ); Mat image2 = imread ( argv [ 2 ], IMREAD_GRAYSCALE ); // Creamos el detector ORB con 100 puntos como maximo Ptr < FeatureDetector > detector = ORB :: create ( 100 ); // Usamos ORB para detectar los keypoints vector < KeyPoint > keypoints1 , keypoints2 ; detector -> detect ( image1 , keypoints1 ); detector -> detect ( image2 , keypoints2 ); // Dibujamos los keypoints de la imagen1 Mat featImage ; drawKeypoints ( image1 , keypoints1 , featImage , Scalar ( 255 , 255 , 255 ), DrawMatchesFlags :: DRAW_RICH_KEYPOINTS ); namedWindow ( \"ORB\" ); imshow ( \"ORB\" , featImage ); // Ademas del detector, ORB incluye el descriptor, que aplicamos a continuacion Ptr < DescriptorExtractor > descriptor = detector ; Mat descriptors1 , descriptors2 ; descriptor -> compute ( image1 , keypoints1 , descriptors1 ); descriptor -> compute ( image2 , keypoints2 , descriptors2 ); // En este punto hacemos matching (mirar los keypoints coincidentes en ambas imagenes). Creamos el matcher. BFMatcher matcher ( NORM_HAMMING ); // Al ser un descriptor binario, debemos usar la distancia de Hamming // Lo aplicamos a los descriptores para obtener el vector matches. vector < DMatch > matches ; matcher . match ( descriptors1 , descriptors2 , matches ); // Dibujamos los matches Mat imageMatches ; drawMatches ( image1 , keypoints1 , image2 , keypoints2 , matches , imageMatches , // Imagen donde guardamos el resultado Scalar ( 255 , 255 , 255 ), // color de las lineas Scalar ( 255 , 255 , 255 )); // color de los puntos // Mostramos el resultado namedWindow ( \"ORB Matches\" ); imshow ( \"ORB Matches\" , imageMatches ); cout << \"Numero de matches: \" << matches . size () << endl ; waitKey (); return 0 ; } Resultado de ejecuci\u00f3n: 1 ./binary USCPedestrianSetB/OSE1cor_1.bmp USCPedestrianSetB/OSE1cor_2.bmp Como puedes ver, usamos Ptr<FeatureDetector> para crear un detector, y a continuaci\u00f3n la funci\u00f3n detect para realizar la detecci\u00f3n. An\u00e1logamente, podemos usar Ptr<DescriptorExtractor> para crear un descriptor, seguido de una llamada a compute para calcularlo. Puedes consultar en la ayuda todos los detectores y descriptores que implementa OpenCV. Adem\u00e1s de estos, podemos usar otros detectores o descriptores externos como SURF. Tanto SIFT como SURF est\u00e1n patentados, por lo que para usarlos necesitamos importar el m\u00f3dulo opencv_contrib/xfeatures2d y aceptar su licencia.","title":"Descriptor"},{"location":"caracteristicas.html#descriptores-neuronales","text":"Como hemos visto en teor\u00eda, tambi\u00e9n podemos usar una red neuronal convolucional (CNN) para extraer una representaci\u00f3n vectorial de una imagen. Para ver c\u00f3mo funciona una red neuronal de la librer\u00eda Caffe (una de las muchas librer\u00edas de redes) en OpenCV se puede consultar este c\u00f3digo de ejemplo . Para poder usarlo, tambi\u00e9n necesitamos descargar los pesos de la red neuronal . Si compilamos caffe_googlenet.cpp y lo ejecutamos, se cargar\u00e1 una red de tipo GoogleNet ya entrenada con millones de im\u00e1genes de ImageNet . Dada una nueva imagen de entrada, esta se rescala y se proporciona a la red neuronal que predice la clase de dicha imagen. Las clases que pueden obtenerse son s\u00f3lo aquellas para las que se ha entrenado la red, que pueden consultarse en el fichero synset_words.txt . Sin embargo, tambi\u00e9n podemos usar la red como extractor de caracter\u00edsticas. Para ello, en lugar de usar la \u00faltima capa (la que realiza la clasificaci\u00f3n), debemos quedarnos con los valores de la pen\u00faltima capa, que en este caso se llama pool5/7x7_s1 . Por tanto, podemos remplazar la instrucci\u00f3n: 1 prob = net . forward ( \"prob\" ); por: 1 Mat neuralCodes = net . forward ( \"pool5/7x7_s1\" ); Despu\u00e9s hay que convertir la matriz neuralCodes a un vector de float (por ejemplo usando la siguiente funci\u00f3n), y ya tendremos nuestro descriptor neuronal que podemos usar como entrada a otro sistema de aprendizaje autom\u00e1tico como kNN o SVM. 1 2 3 4 5 6 7 vector < float > matToFloatVector ( Mat matToConvert ) { vector < float > convert ; convert . assign (( float * ) matToConvert . datastart , ( float * ) matToConvert . dataend ); return convert ; }","title":"Descriptores neuronales"},{"location":"deteccion.html","text":"Tema 4 - Procesamiento de imagen: Filtrado y detecci\u00f3n de bordes, l\u00edneas, puntos aislados y esquinas \u00b6 En este tema aprenderemos a detectar zonas de inter\u00e9s en im\u00e1genes. Detecci\u00f3n de bordes \u00b6 OpenCV tiene una funci\u00f3n que implementa directamente el gradiente de Sobel en ambas direcciones: 1 2 3 4 // Gradiente X Sobel ( src , grad_x , CV_32F , 1 , 0 , 3 ); // Gradiente Y Sobel ( src , grad_y , CV_32F , 0 , 1 , 3 ); Ejemplo de uso : 1 2 3 4 5 6 7 8 9 10 11 12 13 14 15 16 17 18 19 20 21 22 23 24 25 26 27 #include \"opencv2/opencv.hpp\" #include <iostream> using namespace cv ; int main () { Mat m = imread ( \"lena.jpg\" , IMREAD_GRAYSCALE ); if ( image . data ) { // Calculamos gradiente horizontal y vertical Mat dx , dy ; Sobel ( m , dx , CV_32F , 1 , 0 ); Sobel ( m , dy , CV_32F , 0 , 1 ); // Calculamos la magnitud Mat magn ; magnitude ( dx , dy , magn ); // Convertimos de float a uchar y mostramos el resultado magn . convertTo ( magn , CV_8UC1 ); imshow ( \"Sobel\" , magn ); waitKey ( 0 ); } else cout << \"Error opening lena.jpg\" << endl ; } Tambi\u00e9n podemos usar OpenCV para extraer los gradientes en ambas direcciones de una imagen en escala de grises usando las f\u00f3rmulas vistas en teor\u00eda, y esto es lo que haremos en el siguiente ejercicio. Ejercicio \u00b6 Podemos usar distintos kernels para implementar otros gradientes mediante convoluci\u00f3n. Crea un programa llamado prewitt.cpp a partir del siguiente c\u00f3digo, realizando las convoluciones correspondientes de los filtros Prewitt en horizontal y vertical y completando las partes marcadas con TODO : 1 2 3 4 5 6 7 8 9 10 11 12 13 14 15 16 17 18 19 20 21 22 23 24 25 26 27 28 29 30 31 32 33 34 35 36 37 38 39 #include <opencv2/opencv.hpp> #include <iostream> using namespace std ; using namespace cv ; int main ( int argc , char * argv []) { if ( argc != 3 ) { cerr << \"Syntax: \" << argv [ 0 ] << \" <input_image> <output_image>\" << endl ; exit ( - 1 ); } Mat image = imread ( argv [ 1 ], IMREAD_GRAYSCALE ); Mat gu , gv ; if ( image . data ) { // TODO: Calculamos gradiente horizontal gu mediante convoluci\u00f3n // TODO: Calculamos gradiente vertical gv mediante convoluci\u00f3n // Pasamos a float el resultado (la imagen original es uchar) para que los calculos no saturen en la funcion magnitude gu . convertTo ( gu , CV_32F ); gv . convertTo ( gv , CV_32F ); // TODO: Calculamos la magnitud usando la funci\u00f3n magnitude de OpenCV y guardamos el resultado en magn: Mat magn ; // Convertimos de float a uchar para poder visualizar la imagen magn . convertTo ( magn , CV_8UC1 ); // TODO: Guardar resultado en argv[2] imshow ( \"Magnitud\" , magn ); waitKey ( 0 ); } else cout << \"Error opening input file\" << endl ; } Como puedes ver, usamos una resoluci\u00f3n radiom\u00e9trica CV_32F para evitar overflow . Despu\u00e9s devolvemos el resultado a su resoluci\u00f3n original mediante convertTo . El programa lee en escala de grises la imagen de entrada y debe calcular la magnitud del gradiente, mostrarlo y guardarlo en la imagen pasada en argv[2] . En el caso de introducir la imagen lena.jpg , el resultado deber\u00eda ser como el siguiente: Ver\u00e1s que el resultado de ejecutar ambos programas es distinto y que en este caso Sobel detecta los bordes mejor que Prewitt. Reducci\u00f3n de ruido \u00b6 Como hemos visto en teor\u00eda, los filtros gaussianos sirven para suavizar la imagen y eliminar ruido. Se suelen usar como paso previo a los sistemas de detecci\u00f3n de bordes para evitar que el ruido les afecte. En OpenCV tenemos una implementaci\u00f3n del filtro gaussiano en la funci\u00f3n GaussianBlur , que requiere el tama\u00f1o del filtro y su desviaci\u00f3n t\u00edpica: 1 GaussianBlur ( src , dst , Size ( 3 , 3 ), 0 ); // Realiza un filtrado gaussiano con un kernel de 3x3 p\u00edxeles y desviaci\u00f3n t\u00edpica 0 Esta funci\u00f3n admite m\u00e1s par\u00e1metros , como la desviaci\u00f3n t\u00edpica en el eje Y (si se omite es la misma que en el eje X) o el tipo de interpolaci\u00f3n en los bordes (por defecto, BORDER_DEFAULT ). Tambi\u00e9n podemos aplicar un filtro bilateral : 1 bilateralFilter ( src , dst , 15 , 80 , 80 ); // Aplica un filtro bilateral con un di\u00e1metro de 15 pixeles vecinos y una intensidad m\u00ednima 80. Como ves, los \u00faltimos par\u00e1metros son dos umbrales en lugar de uno (es algo complicado de explicar, pero sirven para las im\u00e1genes en color). Normalmente se usa el mismo valor para estos dos umbrales. Si es peque\u00f1o (< 10), el filtro no tendr\u00e1 mucho efecto. Si es grande (> 150) tendr\u00e1 un efecto fuerte, haciendo que la imagen tenga un estilo de c\u00f3mic ( cartoon ). Para m\u00e1s informaci\u00f3n se puede consultar la referencia de la funci\u00f3n. Por \u00faltimo, en OpenCV podemos usar un filtro Canny de la siguiente forma: 1 2 3 4 int lowThreshold = 30 ; int ratio = 3 ; Canny ( src , dst , lowThreshold , lowThreshold * ratio ); // Filtro canny con los umbrales minimo y maximo (hysteresis) proporcionados Como ocurre con las funciones anteriores, los filtros Canny tambi\u00e9n pueden tener m\u00e1s par\u00e1metros . Ejercicio \u00b6 Vamos a hacer un ejercicio usando todos los filtros anteriores. En este caso, partiremos de este c\u00f3digo que tendr\u00e1s que descargar, completando las instrucciones indicadas con TODO . Se trata de un ejercicio para cartoonizar una imagen. Llama al siguiente programa cartoonize.cpp . 1 2 3 4 5 6 7 8 9 10 11 12 13 14 15 16 17 18 19 20 21 22 23 24 25 26 27 28 29 30 31 32 33 34 35 36 37 38 39 40 41 42 43 44 45 46 47 48 49 50 51 52 53 54 55 56 57 58 59 60 61 62 63 64 65 66 67 68 69 #include <opencv2/opencv.hpp> #include <iostream> using namespace cv ; using namespace std ; int main ( int argc , const char * argv []) { if ( argc != 2 ) { cerr << \"Syntax: \" << argv [ 0 ] << \" <image>\" << endl ; exit ( - 1 ); } Mat img = imread ( argv [ 1 ]); Mat imgCanny , imgCannyf , imgBF , imgCanny3c , result , resultf ; /** BORDES **/ // Aplicamos un filtro de mediana de tama\u00f1o 7x7 para quitar ruido. // TODO // Detectamos los bordes con canny, umbral inferior 50 y superior 150. // TODO // Dilatamos los bordes mediante un filtro cuadrado de 2x2 // TODO (guardar en imgCanny) // Escalamos los valores resultantes a 1 y los invertimos imgCanny = 1 - ( imgCanny / 255 ); // Convertimos la imagen a float para permitir multiplicaciones con valores entre 0 y 1 imgCanny . convertTo ( imgCannyf , CV_32FC3 ); // Aplicamos un filtro gaussiano de 5x5 pixels con desviacion t\u00edpica 0. // TODO (guardar en imgCannyf) /** COLOR **/ // Sobre la imagen original, aplicamos un filtro bilateral de diametro 9 con umbrales 150 y 150. // TODO (guardar en imgBF) // Truncamos los colores. En este caso usamos un valor de 25 (cuanto mas alto mas \"cartoonizado\") result = imgBF / 25 ; result = result * 25 ; // Convertimos la imagen a float, igual que hemos hecho con los bordes // TODO (guardar en resultf) /** UNIMOS COLOR Y BORDES **/ Mat cannyChannels [] = { imgCannyf , imgCannyf , imgCannyf }; merge ( cannyChannels , 3 , imgCanny3c ); // Multiplicamos las matrices de color (resultf) y bordes (imgCanny3c) // TODO (guardar en resultf). Importante: Para multiplicar se debe usar la funcion multiply de OpenCV. La operacion c=a*b se implementa con multiply(a,b,c); // convertimos el resultado a una imagen estandar (color de 8 bits) // TODO (guardar en result) // Mostramos el resultado imshow ( \"Input\" , img ); imshow ( \"Result\" , result ); imwrite ( \"cartoonized.jpg\" , result ); waitKey ( 0 ); return 0 ; } El resultado del programa deber\u00eda ser exactamente este: Detecci\u00f3n de l\u00edneas \u00b6 La llamada m\u00e1s sencilla para ejecutar Hough como detector de l\u00edneas es: 1 HoughLinesP ( src , lines , rho , theta , threshold ); src : Imagen de un canal en escala de grises. lines : Vector de l\u00edneas. Cada l\u00ednea es otro vector de 4 elementos (x1, y1, x2, y2), donde (x1,y1) y (x2, y2) son los puntos extremos de la l\u00ednea. rho : Resoluci\u00f3n de la distancia del acumulador (en p\u00edxeles). theta : Resoluci\u00f3n del \u00e1ngulo del acumulador (en p\u00edxeles). threshold : Umbral del acumulador. S\u00f3lo se devuelven aquellas l\u00edneas que tienen m\u00e1s votos que este umbral. minLineLength (opcional): M\u00ednima longitud de una l\u00ednea. Los segmentos m\u00e1s cortos que esta longitud se descartan. maxLineGap (opcional): M\u00e1ximo salto permitido entre puntos de la misma l\u00ednea para enlazarlos. La funci\u00f3n Hough debe usarse siempre tras un detector de bordes. Por ejemplo: 1 2 3 4 5 vector < Vec4i > lines ; Mat dst ; Canny ( src , dst , 50 , 200 , 3 ); HoughLinesP ( dst , lines , 1 , CV_PI / 180 , 80 , 30 , 10 ); Veamos un programa completo que usa Hough y muestra las l\u00edneas detectadas sobre la imagen: 1 2 3 4 5 6 7 8 9 10 11 12 13 14 15 16 17 18 19 20 21 22 23 24 25 26 27 #include <opencv2/opencv.hpp> #include <iostream> using namespace cv ; using namespace std ; int main () { Mat src = imread ( \"damas_corrected.jpg\" ); Mat dst ; vector < Vec4i > lines ; Canny ( src , dst , 20 , 100 , 3 ); imshow ( \"Canny\" , dst ); // Mostramos la salida de Canny HoughLinesP ( dst , lines , 1 , CV_PI / 180 , 20 , 10 , 0 ); Mat color_dst ( src ); // imagen de salida for ( unsigned i = 0 ; i < lines . size (); i ++ ) { // Dibujamos las lineas detectadas line ( color_dst , Point ( lines [ i ][ 0 ], lines [ i ][ 1 ]), Point ( lines [ i ][ 2 ], lines [ i ][ 3 ]), Scalar ( 0 , 0 , 255 ), 3 ); } imshow ( \"Lineas\" , color_dst ); // Mostramos las l\u00edneas detectadas waitKey ( 0 ); } La salida tras aplicar el filtro Canny: Las l\u00edneas detectadas usando Hough: La transformada de Hough tambi\u00e9n se puede utilizar para detecci\u00f3n de otras formas geom\u00e9tricas como c\u00edrculos. La llamada m\u00e1s sencilla a la funci\u00f3n HoughCircles es: 1 HoughCircles ( gray , circles , CV_HOUGH_GRADIENT , 1 , src_gray . rows / 8 , 200 , 100 ); Puedes usar la documentaci\u00f3n de HoughCircles para obtener m\u00e1s informaci\u00f3n sobre estos par\u00e1metros. La funci\u00f3n approxPolyDP aproxima una curva o un pol\u00edgono con otra curva/pol\u00edgono con menos v\u00e9rtices de forma que la distancia entre ambas sea menor o igual que la precisi\u00f3n especificada. Se implementa usando el algoritmo de Douglas-Peucker : 1 approxPolyDP ( InputArray curve , OutputArray approxCurve , double epsilon , bool closed ); Esta funci\u00f3n suele usarse tras extraer las curvas/pol\u00edgonos de una imagen mediante la funci\u00f3n findContours , que veremos en el siguiente tema sobre segmentaci\u00f3n. Detecci\u00f3n de puntos aislados \u00b6 Como hemos visto en teor\u00eda, la Laplaciana es la derivada del gradiente y se puede usar para detectar puntos aislados. Puede implementarse mediante una convoluci\u00f3n con un kernel laplaciano, pero OpenCV proporciona directamente la funci\u00f3n Laplacian , que internamente llama a Sobel para calcular los gradientes: 1 Laplacian ( src , dst , ddepth , kernel_size , scale , delta , BORDER_DEFAULT ); Detecci\u00f3n de esquinas: Harris \u00b6 Podemos detectar esquinas en OpenCV mediante la funci\u00f3n cornerHarris . Necesita como entrada una imagen de tipo float en escala de grises y recibe como par\u00e1metros: el n\u00famero de p\u00edxeles vecinos a tener en cuenta, el tama\u00f1o del filtro (apertura) para calcular los gradientes con Sobel, y el umbral de detecci\u00f3n k , que es el \u00fanico par\u00e1metro libre del algoritmo Harris: 1 cornerHarris ( src_gray , dst , blockSize , apertureSize , k ); Puedes encontrar un buen ejemplo de Harris en este enlace . Ejercicio \u00b6 Escribe el siguiente c\u00f3digo, ll\u00e1malo harris.cpp y compl\u00e9talo como se indica: 1 2 3 4 5 6 7 8 9 10 11 12 13 14 15 16 17 18 19 20 21 22 23 #include <opencv2/opencv.hpp> #include <iostream> using namespace std ; using namespace cv ; int main () { Mat src = imread ( \"damas_corrected.jpg\" ); Mat src_gray , dst ; // Pasar la imagen a tipo float y escala de grises // TODO (guardar en src_gray) // Detectar las esquinas con Harris. Parametros: blockSize=2, apertureSize=3, k=0.04. // TODO (guardar en dst) // Sobre la imagen original, poner en color azul los p\u00edxeles detectados como borde. // Son aquellos que en los que dst(i,j) tiene un valor mayor de 10000. // TODO (guardar en src). // Mostrar por pantalla src y adem\u00e1s guardarlo en el fichero llamado \"damasHarris.jpg\". // TODO } La imagen resultante debe ser como esta:","title":"T4- Detecci\u00f3n"},{"location":"deteccion.html#tema-4-procesamiento-de-imagen-filtrado-y-deteccion-de-bordes-lineas-puntos-aislados-y-esquinas","text":"En este tema aprenderemos a detectar zonas de inter\u00e9s en im\u00e1genes.","title":"Tema 4 - Procesamiento de imagen: Filtrado y detecci\u00f3n de bordes, l\u00edneas, puntos aislados y esquinas"},{"location":"deteccion.html#deteccion-de-bordes","text":"OpenCV tiene una funci\u00f3n que implementa directamente el gradiente de Sobel en ambas direcciones: 1 2 3 4 // Gradiente X Sobel ( src , grad_x , CV_32F , 1 , 0 , 3 ); // Gradiente Y Sobel ( src , grad_y , CV_32F , 0 , 1 , 3 ); Ejemplo de uso : 1 2 3 4 5 6 7 8 9 10 11 12 13 14 15 16 17 18 19 20 21 22 23 24 25 26 27 #include \"opencv2/opencv.hpp\" #include <iostream> using namespace cv ; int main () { Mat m = imread ( \"lena.jpg\" , IMREAD_GRAYSCALE ); if ( image . data ) { // Calculamos gradiente horizontal y vertical Mat dx , dy ; Sobel ( m , dx , CV_32F , 1 , 0 ); Sobel ( m , dy , CV_32F , 0 , 1 ); // Calculamos la magnitud Mat magn ; magnitude ( dx , dy , magn ); // Convertimos de float a uchar y mostramos el resultado magn . convertTo ( magn , CV_8UC1 ); imshow ( \"Sobel\" , magn ); waitKey ( 0 ); } else cout << \"Error opening lena.jpg\" << endl ; } Tambi\u00e9n podemos usar OpenCV para extraer los gradientes en ambas direcciones de una imagen en escala de grises usando las f\u00f3rmulas vistas en teor\u00eda, y esto es lo que haremos en el siguiente ejercicio.","title":"Detecci\u00f3n de bordes"},{"location":"deteccion.html#ejercicio","text":"Podemos usar distintos kernels para implementar otros gradientes mediante convoluci\u00f3n. Crea un programa llamado prewitt.cpp a partir del siguiente c\u00f3digo, realizando las convoluciones correspondientes de los filtros Prewitt en horizontal y vertical y completando las partes marcadas con TODO : 1 2 3 4 5 6 7 8 9 10 11 12 13 14 15 16 17 18 19 20 21 22 23 24 25 26 27 28 29 30 31 32 33 34 35 36 37 38 39 #include <opencv2/opencv.hpp> #include <iostream> using namespace std ; using namespace cv ; int main ( int argc , char * argv []) { if ( argc != 3 ) { cerr << \"Syntax: \" << argv [ 0 ] << \" <input_image> <output_image>\" << endl ; exit ( - 1 ); } Mat image = imread ( argv [ 1 ], IMREAD_GRAYSCALE ); Mat gu , gv ; if ( image . data ) { // TODO: Calculamos gradiente horizontal gu mediante convoluci\u00f3n // TODO: Calculamos gradiente vertical gv mediante convoluci\u00f3n // Pasamos a float el resultado (la imagen original es uchar) para que los calculos no saturen en la funcion magnitude gu . convertTo ( gu , CV_32F ); gv . convertTo ( gv , CV_32F ); // TODO: Calculamos la magnitud usando la funci\u00f3n magnitude de OpenCV y guardamos el resultado en magn: Mat magn ; // Convertimos de float a uchar para poder visualizar la imagen magn . convertTo ( magn , CV_8UC1 ); // TODO: Guardar resultado en argv[2] imshow ( \"Magnitud\" , magn ); waitKey ( 0 ); } else cout << \"Error opening input file\" << endl ; } Como puedes ver, usamos una resoluci\u00f3n radiom\u00e9trica CV_32F para evitar overflow . Despu\u00e9s devolvemos el resultado a su resoluci\u00f3n original mediante convertTo . El programa lee en escala de grises la imagen de entrada y debe calcular la magnitud del gradiente, mostrarlo y guardarlo en la imagen pasada en argv[2] . En el caso de introducir la imagen lena.jpg , el resultado deber\u00eda ser como el siguiente: Ver\u00e1s que el resultado de ejecutar ambos programas es distinto y que en este caso Sobel detecta los bordes mejor que Prewitt.","title":"Ejercicio"},{"location":"deteccion.html#reduccion-de-ruido","text":"Como hemos visto en teor\u00eda, los filtros gaussianos sirven para suavizar la imagen y eliminar ruido. Se suelen usar como paso previo a los sistemas de detecci\u00f3n de bordes para evitar que el ruido les afecte. En OpenCV tenemos una implementaci\u00f3n del filtro gaussiano en la funci\u00f3n GaussianBlur , que requiere el tama\u00f1o del filtro y su desviaci\u00f3n t\u00edpica: 1 GaussianBlur ( src , dst , Size ( 3 , 3 ), 0 ); // Realiza un filtrado gaussiano con un kernel de 3x3 p\u00edxeles y desviaci\u00f3n t\u00edpica 0 Esta funci\u00f3n admite m\u00e1s par\u00e1metros , como la desviaci\u00f3n t\u00edpica en el eje Y (si se omite es la misma que en el eje X) o el tipo de interpolaci\u00f3n en los bordes (por defecto, BORDER_DEFAULT ). Tambi\u00e9n podemos aplicar un filtro bilateral : 1 bilateralFilter ( src , dst , 15 , 80 , 80 ); // Aplica un filtro bilateral con un di\u00e1metro de 15 pixeles vecinos y una intensidad m\u00ednima 80. Como ves, los \u00faltimos par\u00e1metros son dos umbrales en lugar de uno (es algo complicado de explicar, pero sirven para las im\u00e1genes en color). Normalmente se usa el mismo valor para estos dos umbrales. Si es peque\u00f1o (< 10), el filtro no tendr\u00e1 mucho efecto. Si es grande (> 150) tendr\u00e1 un efecto fuerte, haciendo que la imagen tenga un estilo de c\u00f3mic ( cartoon ). Para m\u00e1s informaci\u00f3n se puede consultar la referencia de la funci\u00f3n. Por \u00faltimo, en OpenCV podemos usar un filtro Canny de la siguiente forma: 1 2 3 4 int lowThreshold = 30 ; int ratio = 3 ; Canny ( src , dst , lowThreshold , lowThreshold * ratio ); // Filtro canny con los umbrales minimo y maximo (hysteresis) proporcionados Como ocurre con las funciones anteriores, los filtros Canny tambi\u00e9n pueden tener m\u00e1s par\u00e1metros .","title":"Reducci\u00f3n de ruido"},{"location":"deteccion.html#ejercicio_1","text":"Vamos a hacer un ejercicio usando todos los filtros anteriores. En este caso, partiremos de este c\u00f3digo que tendr\u00e1s que descargar, completando las instrucciones indicadas con TODO . Se trata de un ejercicio para cartoonizar una imagen. Llama al siguiente programa cartoonize.cpp . 1 2 3 4 5 6 7 8 9 10 11 12 13 14 15 16 17 18 19 20 21 22 23 24 25 26 27 28 29 30 31 32 33 34 35 36 37 38 39 40 41 42 43 44 45 46 47 48 49 50 51 52 53 54 55 56 57 58 59 60 61 62 63 64 65 66 67 68 69 #include <opencv2/opencv.hpp> #include <iostream> using namespace cv ; using namespace std ; int main ( int argc , const char * argv []) { if ( argc != 2 ) { cerr << \"Syntax: \" << argv [ 0 ] << \" <image>\" << endl ; exit ( - 1 ); } Mat img = imread ( argv [ 1 ]); Mat imgCanny , imgCannyf , imgBF , imgCanny3c , result , resultf ; /** BORDES **/ // Aplicamos un filtro de mediana de tama\u00f1o 7x7 para quitar ruido. // TODO // Detectamos los bordes con canny, umbral inferior 50 y superior 150. // TODO // Dilatamos los bordes mediante un filtro cuadrado de 2x2 // TODO (guardar en imgCanny) // Escalamos los valores resultantes a 1 y los invertimos imgCanny = 1 - ( imgCanny / 255 ); // Convertimos la imagen a float para permitir multiplicaciones con valores entre 0 y 1 imgCanny . convertTo ( imgCannyf , CV_32FC3 ); // Aplicamos un filtro gaussiano de 5x5 pixels con desviacion t\u00edpica 0. // TODO (guardar en imgCannyf) /** COLOR **/ // Sobre la imagen original, aplicamos un filtro bilateral de diametro 9 con umbrales 150 y 150. // TODO (guardar en imgBF) // Truncamos los colores. En este caso usamos un valor de 25 (cuanto mas alto mas \"cartoonizado\") result = imgBF / 25 ; result = result * 25 ; // Convertimos la imagen a float, igual que hemos hecho con los bordes // TODO (guardar en resultf) /** UNIMOS COLOR Y BORDES **/ Mat cannyChannels [] = { imgCannyf , imgCannyf , imgCannyf }; merge ( cannyChannels , 3 , imgCanny3c ); // Multiplicamos las matrices de color (resultf) y bordes (imgCanny3c) // TODO (guardar en resultf). Importante: Para multiplicar se debe usar la funcion multiply de OpenCV. La operacion c=a*b se implementa con multiply(a,b,c); // convertimos el resultado a una imagen estandar (color de 8 bits) // TODO (guardar en result) // Mostramos el resultado imshow ( \"Input\" , img ); imshow ( \"Result\" , result ); imwrite ( \"cartoonized.jpg\" , result ); waitKey ( 0 ); return 0 ; } El resultado del programa deber\u00eda ser exactamente este:","title":"Ejercicio"},{"location":"deteccion.html#deteccion-de-lineas","text":"La llamada m\u00e1s sencilla para ejecutar Hough como detector de l\u00edneas es: 1 HoughLinesP ( src , lines , rho , theta , threshold ); src : Imagen de un canal en escala de grises. lines : Vector de l\u00edneas. Cada l\u00ednea es otro vector de 4 elementos (x1, y1, x2, y2), donde (x1,y1) y (x2, y2) son los puntos extremos de la l\u00ednea. rho : Resoluci\u00f3n de la distancia del acumulador (en p\u00edxeles). theta : Resoluci\u00f3n del \u00e1ngulo del acumulador (en p\u00edxeles). threshold : Umbral del acumulador. S\u00f3lo se devuelven aquellas l\u00edneas que tienen m\u00e1s votos que este umbral. minLineLength (opcional): M\u00ednima longitud de una l\u00ednea. Los segmentos m\u00e1s cortos que esta longitud se descartan. maxLineGap (opcional): M\u00e1ximo salto permitido entre puntos de la misma l\u00ednea para enlazarlos. La funci\u00f3n Hough debe usarse siempre tras un detector de bordes. Por ejemplo: 1 2 3 4 5 vector < Vec4i > lines ; Mat dst ; Canny ( src , dst , 50 , 200 , 3 ); HoughLinesP ( dst , lines , 1 , CV_PI / 180 , 80 , 30 , 10 ); Veamos un programa completo que usa Hough y muestra las l\u00edneas detectadas sobre la imagen: 1 2 3 4 5 6 7 8 9 10 11 12 13 14 15 16 17 18 19 20 21 22 23 24 25 26 27 #include <opencv2/opencv.hpp> #include <iostream> using namespace cv ; using namespace std ; int main () { Mat src = imread ( \"damas_corrected.jpg\" ); Mat dst ; vector < Vec4i > lines ; Canny ( src , dst , 20 , 100 , 3 ); imshow ( \"Canny\" , dst ); // Mostramos la salida de Canny HoughLinesP ( dst , lines , 1 , CV_PI / 180 , 20 , 10 , 0 ); Mat color_dst ( src ); // imagen de salida for ( unsigned i = 0 ; i < lines . size (); i ++ ) { // Dibujamos las lineas detectadas line ( color_dst , Point ( lines [ i ][ 0 ], lines [ i ][ 1 ]), Point ( lines [ i ][ 2 ], lines [ i ][ 3 ]), Scalar ( 0 , 0 , 255 ), 3 ); } imshow ( \"Lineas\" , color_dst ); // Mostramos las l\u00edneas detectadas waitKey ( 0 ); } La salida tras aplicar el filtro Canny: Las l\u00edneas detectadas usando Hough: La transformada de Hough tambi\u00e9n se puede utilizar para detecci\u00f3n de otras formas geom\u00e9tricas como c\u00edrculos. La llamada m\u00e1s sencilla a la funci\u00f3n HoughCircles es: 1 HoughCircles ( gray , circles , CV_HOUGH_GRADIENT , 1 , src_gray . rows / 8 , 200 , 100 ); Puedes usar la documentaci\u00f3n de HoughCircles para obtener m\u00e1s informaci\u00f3n sobre estos par\u00e1metros. La funci\u00f3n approxPolyDP aproxima una curva o un pol\u00edgono con otra curva/pol\u00edgono con menos v\u00e9rtices de forma que la distancia entre ambas sea menor o igual que la precisi\u00f3n especificada. Se implementa usando el algoritmo de Douglas-Peucker : 1 approxPolyDP ( InputArray curve , OutputArray approxCurve , double epsilon , bool closed ); Esta funci\u00f3n suele usarse tras extraer las curvas/pol\u00edgonos de una imagen mediante la funci\u00f3n findContours , que veremos en el siguiente tema sobre segmentaci\u00f3n.","title":"Detecci\u00f3n de l\u00edneas"},{"location":"deteccion.html#deteccion-de-puntos-aislados","text":"Como hemos visto en teor\u00eda, la Laplaciana es la derivada del gradiente y se puede usar para detectar puntos aislados. Puede implementarse mediante una convoluci\u00f3n con un kernel laplaciano, pero OpenCV proporciona directamente la funci\u00f3n Laplacian , que internamente llama a Sobel para calcular los gradientes: 1 Laplacian ( src , dst , ddepth , kernel_size , scale , delta , BORDER_DEFAULT );","title":"Detecci\u00f3n de puntos aislados"},{"location":"deteccion.html#deteccion-de-esquinas-harris","text":"Podemos detectar esquinas en OpenCV mediante la funci\u00f3n cornerHarris . Necesita como entrada una imagen de tipo float en escala de grises y recibe como par\u00e1metros: el n\u00famero de p\u00edxeles vecinos a tener en cuenta, el tama\u00f1o del filtro (apertura) para calcular los gradientes con Sobel, y el umbral de detecci\u00f3n k , que es el \u00fanico par\u00e1metro libre del algoritmo Harris: 1 cornerHarris ( src_gray , dst , blockSize , apertureSize , k ); Puedes encontrar un buen ejemplo de Harris en este enlace .","title":"Detecci\u00f3n de esquinas: Harris"},{"location":"deteccion.html#ejercicio_2","text":"Escribe el siguiente c\u00f3digo, ll\u00e1malo harris.cpp y compl\u00e9talo como se indica: 1 2 3 4 5 6 7 8 9 10 11 12 13 14 15 16 17 18 19 20 21 22 23 #include <opencv2/opencv.hpp> #include <iostream> using namespace std ; using namespace cv ; int main () { Mat src = imread ( \"damas_corrected.jpg\" ); Mat src_gray , dst ; // Pasar la imagen a tipo float y escala de grises // TODO (guardar en src_gray) // Detectar las esquinas con Harris. Parametros: blockSize=2, apertureSize=3, k=0.04. // TODO (guardar en dst) // Sobre la imagen original, poner en color azul los p\u00edxeles detectados como borde. // Son aquellos que en los que dst(i,j) tiene un valor mayor de 10000. // TODO (guardar en src). // Mostrar por pantalla src y adem\u00e1s guardarlo en el fichero llamado \"damasHarris.jpg\". // TODO } La imagen resultante debe ser como esta:","title":"Ejercicio"},{"location":"imagenvideo.html","text":"Tema 2- Imagen digital y v\u00eddeo \u00b6 En este tema usaremos OpenCV para trabajar con cambios de resoluci\u00f3n de im\u00e1genes, histogramas, brillo/contraste y conversi\u00f3n entre espacios de color. Cambios de resoluci\u00f3n espacial y radiom\u00e9trica \u00b6 En OpenCV podemos cambiar la resoluci\u00f3n espacial (es decir, el tama\u00f1o de la imagen) con la funci\u00f3n resize : 1 2 3 4 5 // Guardamos la imagen en destino con el 75% de su tama\u00f1o original resize ( origen , destino , Size (), 0.75 , 0.75 ); // Guardamos la imagen en destino con un tamanyo de 640(ancho)x480(alto) resize ( origen , destino , Size ( 640 , 480 )); Para cambiar s\u00f3lo la resoluci\u00f3n radiom\u00e9trica (el n\u00famero de bits usados para representar el valor de un p\u00edxel), tambi\u00e9n llamada depth , podemos usar el m\u00e9todo convertTo indicando el nombre de la nueva imagen y su resoluci\u00f3n: 1 2 Mat destino ; origen . convertTo ( destino , CV_8U ); // Convertir a 8 bits y guardar en destino Brillo/contraste \u00b6 Tal como puedes ver en las transparencias de teor\u00eda, el brillo y contraste de una imagen se definen con las siguientes ecuaciones: Ejercicio \u00b6 Implementa un programa en OpenCV llamado bc.cpp que reciba por par\u00e1metro el nombre de una imagen (la cargaremos en escala de grises) y muestre por el terminal su brillo y contraste. Ejemplo de ejecuci\u00f3n: 1 2 3 ./bc lena.jpg b = 120 .445 c = 48 .2231 Importante: Como la correcci\u00f3n de pr\u00e1cticas es autom\u00e1tica, la salida del programa debe tener exactamente el formato que se indica, por lo que la \u00faltima l\u00ednea del c\u00f3digo deber\u00eda ser como la siguiente: 1 cout << \"b=\" << brillo << endl << \"c=\" << contraste << endl ; Las variables brillo y contraste deben ser de tipo float . Histogramas \u00b6 Podemos calcular el histograma de una imagen con la funci\u00f3n calcHist . Esta funci\u00f3n recibe muchos par\u00e1metros porque est\u00e1 pensada para calcular a la vez todos los histogramas de un array de im\u00e1genes. Par\u00e1metros de calcHist : images : Array de im\u00e1genes, deben tener la misma resoluci\u00f3n, CV_8U, CV_16U o CV_32F, y el mismo tama\u00f1o, aunque pueden tener un n\u00famero distinto de canales. nimages : N\u00famero de im\u00e1genes en este array channels : Lista de los canales usados para calcular el histograma, comenzando por el n\u00famero de canal 0. mask : Matriz opcional para usar una m\u00e1scara binaria. Si no est\u00e1 vac\u00eda debe ser un array de 8 bits del mismo tama\u00f1o que images[i]. hist : Matriz donde guardaremos el histograma. dims : Dimensionalidad del histograma histSize : Array de tama\u00f1os de histogramas para cada dimensi\u00f3n. ranges : Array de los valores m\u00ednimos y m\u00e1ximos para cada imagen. Cuando es el mismo para todas las im\u00e1genes ( uniform=true ), s\u00f3lo hay que especificar un array de dos elementos. uniform (opcional): Indica si el histograma es uniforme (por defecto, true). accumulate (opcional): Si es true, el histograma no se resetea cuando se analiza otra imagen, de forma que podemos tener un histograma global de varias im\u00e1genes (por defecto, false). Veamos un ejemplo que calcula el histograma de una imagen en escala de grises, lo muestra por el terminal y crea una gr\u00e1fica en una ventana: 1 2 3 4 5 6 7 8 9 10 11 12 13 14 15 16 17 18 19 20 21 22 23 24 25 26 27 28 29 30 31 32 33 34 35 36 37 38 39 40 41 42 43 44 45 #include <opencv2/opencv.hpp> #include <iostream> using namespace std ; using namespace cv ; int main () { Mat image = imread ( \"lena.jpg\" , IMREAD_GRAYSCALE ); if ( ! image . data ) { cout << \"Error opening image\" << endl ; return - 1 ; } Mat hist ; // En esta variable guardaremos el histograma int histSize = 256 ; // Numero de bins del histograma calcHist ( & image , 1 , 0 , Mat (), hist , 1 , & histSize , 0 ); // Calculamos el histograma // Mostramos los valores por pantalla for ( int i = 0 ; i < histSize ; i ++ ) cout << \" \" << hist . at < float > ( i ); cout << endl ; // Mostramos una grafica con el histograma int hist_w = 512 ; int hist_h = 400 ; int bin_w = cvRound (( double ) hist_w / histSize ); Mat histImage ( hist_h , hist_w , CV_8UC1 , Scalar ( 0 , 0 , 0 )); // Normalizamos el histograma entre 0 y histImage.rows normalize ( hist , hist , 0 , histImage . rows , NORM_MINMAX , - 1 , Mat ()); // Dibujamos la grafica del histograma usando line, que crea una linea entre dos puntos. for ( int i = 1 ; i < histSize ; i ++ ) { line ( histImage , Point ( bin_w * ( i - 1 ), hist_h - cvRound ( hist . at < float > ( i - 1 ))), Point ( bin_w * ( i ), hist_h - cvRound ( hist . at < float > ( i ))), Scalar ( 255 , 0 , 0 ), 2 , 8 , 0 ); } namedWindow ( \"Result\" , WINDOW_AUTOSIZE ); imshow ( \"Result\" , histImage ); waitKey ( 0 ); } Cuando hay tres canales lo m\u00e1s frecuente es construir un histograma para cada uno de ellos. Para separar los canales de una imagen podemos usar la funci\u00f3n split : 1 2 3 4 5 6 7 8 9 10 11 12 13 14 15 16 17 #include <opencv2/opencv.hpp> #include <iostream> using namespace std ; using namespace cv ; int main () { Mat color_image = imread ( \"lena.jpg\" ); vector < Mat > channels ; split ( color_image , channels ); imshow ( \"Blue\" , channels [ 0 ]); imshow ( \"Green\" , channels [ 1 ]); imshow ( \"Red\" , channels [ 2 ]); waitKey ( 0 ); } Ejercicio \u00b6 Haz un programa llamado histograma_color.cpp que reciba por par\u00e1metro el nombre de fichero de una imagen y el nombre de otra imagen donde guardaremos el resultado. El programa debe mostrar en una ventana el histograma de sus tres colores b\u00e1sicos, y adem\u00e1s guardarlo en el fichero de salida. Ejemplo de ejecuci\u00f3n: 1 ./histograma_color lena.jpg histograma.jpg Tendr\u00e1s que usar como base el c\u00f3digo anterior para calcular el histograma en un canal, y duplicar algunas l\u00edneas para hacerlo en BGR. Una vez divididos los canales con split puedes calcular el histograma de cada canal de este modo: 1 calcHist ( & bgr_planes [ 0 ], 1 , 0 , Mat (), b_hist , 1 , & histSize , 0 ); // Calculamos el histograma B. Conversi\u00f3n de espacios de color \u00b6 OpenCV soporta m\u00e1s de 150 espacios de color. La funci\u00f3n que realiza las conversiones entre ellos es cvtColor , y admite hasta 4 par\u00e1metros: src : Imagen de entrada dst : Imagen de salida con el mismo tama\u00f1o y resoluci\u00f3n ( depth ) que la imagen de entrada. code : C\u00f3digo de conversi\u00f3n del espacio de color. Su estructura es COLOR_SPACEsrc2SPACEdst . Ejemplos: COLOR_BGR2GRAY , COLOR_YCrCb2BGR . dstCn (opcional): El n\u00famero de canales en la imagen destino. Si se omite el par\u00e1metro, se infiere del n\u00famero de canales de la imagen src . Ejemplo de uso: 1 cvtColor ( input_image , output_image , COLOR_BGR2GRAY ); Importante: La funci\u00f3n cvtColor s\u00f3lo convierte de RGB a otro espacio de color o viceversa, por lo que si queremos convertir una imagen entre dos espacios distintos a RGB, primero tenemos que pasarla a RGB y despu\u00e9s al espacio destino. Ejemplos de conversi\u00f3n: 1 2 3 4 Mat converted ; cvtColor ( image , converted , COLOR_BGR2GRAY ); // Convertir RGB a escala de grises cvtColor ( image , converted , COLOR_BGR2Luv ); // Convertir a LUV cvtColor ( image , converted , COLOR_BGR2XYZ ); // Convertir a CIEXYZ Puedes consultar en este enlace todas las f\u00f3rmulas que usa OpenCV para conversi\u00f3n entre espacios. Por ejemplo, para convertir un valor RGB en escala de grises se usa la siguiente f\u00f3rmula: 0.299 R + 0.587 G+ 0.114*B. Ten en cuenta que OpenCV a veces no usa el mismo orden de canales del est\u00e1ndar del espacio de color. Por ejemplo, RGB se codifica en OpenCV como BGR, y HSL se codifica como HLS, por lo que el \u00faltimo canal que almacena en este caso es S en lugar de L. Ejercicio \u00b6 Haz un programa llamado colorLight.cpp que reciba por par\u00e1metro el nombre de una imagen y extraiga los canales que se muestran a continuaci\u00f3n, guard\u00e1ndolos exactamente con el siguiente nombre de fichero: El canal L de CIELab, fichero cielab_l.jpg . El canal V de HSV, fichero hsv_v.jpg . El canal L de HSL, fichero hsl_l.jpg . El canal Y de YCbCr, fichero ycrcb_y.jpg . Para hacer pruebas puedes usar la siguiente imagen de entrada: By I, Luc Viatour , CC BY-SA 3.0 , . Ejemplo de ejecuci\u00f3n: 1 ./colorLight Fire_breathing_2_Luc_Viatour.jpg Pista: Tras convertir las im\u00e1genes con cvtColor puedes usar split para separar sus canales. Pseudocolor \u00b6 Mediante la funci\u00f3n applyColorMap tambi\u00e9n podemos pseudocolorear im\u00e1genes en escala de grises usando los mapas de color predefinidos en OpenCV. Por ejemplo: 1 2 3 Mat im_gray = imread ( \"pluto.jpg\" , IMREAD_GRAYSCALE ); Mat im_color ; applyColorMap ( im_gray , im_color , COLORMAP_JET ); Escribe un programa completo que contenga este c\u00f3digo de ejemplo (no hay que entregarlo) para visualizar el resultado de pseudocolorear la siguiente imagen de Plut\u00f3n obtenida por la sonda New Horizons:","title":"T2- Imagen digital y v\u00eddeo"},{"location":"imagenvideo.html#tema-2-imagen-digital-y-video","text":"En este tema usaremos OpenCV para trabajar con cambios de resoluci\u00f3n de im\u00e1genes, histogramas, brillo/contraste y conversi\u00f3n entre espacios de color.","title":"Tema 2- Imagen digital y v\u00eddeo"},{"location":"imagenvideo.html#cambios-de-resolucion-espacial-y-radiometrica","text":"En OpenCV podemos cambiar la resoluci\u00f3n espacial (es decir, el tama\u00f1o de la imagen) con la funci\u00f3n resize : 1 2 3 4 5 // Guardamos la imagen en destino con el 75% de su tama\u00f1o original resize ( origen , destino , Size (), 0.75 , 0.75 ); // Guardamos la imagen en destino con un tamanyo de 640(ancho)x480(alto) resize ( origen , destino , Size ( 640 , 480 )); Para cambiar s\u00f3lo la resoluci\u00f3n radiom\u00e9trica (el n\u00famero de bits usados para representar el valor de un p\u00edxel), tambi\u00e9n llamada depth , podemos usar el m\u00e9todo convertTo indicando el nombre de la nueva imagen y su resoluci\u00f3n: 1 2 Mat destino ; origen . convertTo ( destino , CV_8U ); // Convertir a 8 bits y guardar en destino","title":"Cambios de resoluci\u00f3n espacial y radiom\u00e9trica"},{"location":"imagenvideo.html#brillocontraste","text":"Tal como puedes ver en las transparencias de teor\u00eda, el brillo y contraste de una imagen se definen con las siguientes ecuaciones:","title":"Brillo/contraste"},{"location":"imagenvideo.html#ejercicio","text":"Implementa un programa en OpenCV llamado bc.cpp que reciba por par\u00e1metro el nombre de una imagen (la cargaremos en escala de grises) y muestre por el terminal su brillo y contraste. Ejemplo de ejecuci\u00f3n: 1 2 3 ./bc lena.jpg b = 120 .445 c = 48 .2231 Importante: Como la correcci\u00f3n de pr\u00e1cticas es autom\u00e1tica, la salida del programa debe tener exactamente el formato que se indica, por lo que la \u00faltima l\u00ednea del c\u00f3digo deber\u00eda ser como la siguiente: 1 cout << \"b=\" << brillo << endl << \"c=\" << contraste << endl ; Las variables brillo y contraste deben ser de tipo float .","title":"Ejercicio"},{"location":"imagenvideo.html#histogramas","text":"Podemos calcular el histograma de una imagen con la funci\u00f3n calcHist . Esta funci\u00f3n recibe muchos par\u00e1metros porque est\u00e1 pensada para calcular a la vez todos los histogramas de un array de im\u00e1genes. Par\u00e1metros de calcHist : images : Array de im\u00e1genes, deben tener la misma resoluci\u00f3n, CV_8U, CV_16U o CV_32F, y el mismo tama\u00f1o, aunque pueden tener un n\u00famero distinto de canales. nimages : N\u00famero de im\u00e1genes en este array channels : Lista de los canales usados para calcular el histograma, comenzando por el n\u00famero de canal 0. mask : Matriz opcional para usar una m\u00e1scara binaria. Si no est\u00e1 vac\u00eda debe ser un array de 8 bits del mismo tama\u00f1o que images[i]. hist : Matriz donde guardaremos el histograma. dims : Dimensionalidad del histograma histSize : Array de tama\u00f1os de histogramas para cada dimensi\u00f3n. ranges : Array de los valores m\u00ednimos y m\u00e1ximos para cada imagen. Cuando es el mismo para todas las im\u00e1genes ( uniform=true ), s\u00f3lo hay que especificar un array de dos elementos. uniform (opcional): Indica si el histograma es uniforme (por defecto, true). accumulate (opcional): Si es true, el histograma no se resetea cuando se analiza otra imagen, de forma que podemos tener un histograma global de varias im\u00e1genes (por defecto, false). Veamos un ejemplo que calcula el histograma de una imagen en escala de grises, lo muestra por el terminal y crea una gr\u00e1fica en una ventana: 1 2 3 4 5 6 7 8 9 10 11 12 13 14 15 16 17 18 19 20 21 22 23 24 25 26 27 28 29 30 31 32 33 34 35 36 37 38 39 40 41 42 43 44 45 #include <opencv2/opencv.hpp> #include <iostream> using namespace std ; using namespace cv ; int main () { Mat image = imread ( \"lena.jpg\" , IMREAD_GRAYSCALE ); if ( ! image . data ) { cout << \"Error opening image\" << endl ; return - 1 ; } Mat hist ; // En esta variable guardaremos el histograma int histSize = 256 ; // Numero de bins del histograma calcHist ( & image , 1 , 0 , Mat (), hist , 1 , & histSize , 0 ); // Calculamos el histograma // Mostramos los valores por pantalla for ( int i = 0 ; i < histSize ; i ++ ) cout << \" \" << hist . at < float > ( i ); cout << endl ; // Mostramos una grafica con el histograma int hist_w = 512 ; int hist_h = 400 ; int bin_w = cvRound (( double ) hist_w / histSize ); Mat histImage ( hist_h , hist_w , CV_8UC1 , Scalar ( 0 , 0 , 0 )); // Normalizamos el histograma entre 0 y histImage.rows normalize ( hist , hist , 0 , histImage . rows , NORM_MINMAX , - 1 , Mat ()); // Dibujamos la grafica del histograma usando line, que crea una linea entre dos puntos. for ( int i = 1 ; i < histSize ; i ++ ) { line ( histImage , Point ( bin_w * ( i - 1 ), hist_h - cvRound ( hist . at < float > ( i - 1 ))), Point ( bin_w * ( i ), hist_h - cvRound ( hist . at < float > ( i ))), Scalar ( 255 , 0 , 0 ), 2 , 8 , 0 ); } namedWindow ( \"Result\" , WINDOW_AUTOSIZE ); imshow ( \"Result\" , histImage ); waitKey ( 0 ); } Cuando hay tres canales lo m\u00e1s frecuente es construir un histograma para cada uno de ellos. Para separar los canales de una imagen podemos usar la funci\u00f3n split : 1 2 3 4 5 6 7 8 9 10 11 12 13 14 15 16 17 #include <opencv2/opencv.hpp> #include <iostream> using namespace std ; using namespace cv ; int main () { Mat color_image = imread ( \"lena.jpg\" ); vector < Mat > channels ; split ( color_image , channels ); imshow ( \"Blue\" , channels [ 0 ]); imshow ( \"Green\" , channels [ 1 ]); imshow ( \"Red\" , channels [ 2 ]); waitKey ( 0 ); }","title":"Histogramas"},{"location":"imagenvideo.html#ejercicio_1","text":"Haz un programa llamado histograma_color.cpp que reciba por par\u00e1metro el nombre de fichero de una imagen y el nombre de otra imagen donde guardaremos el resultado. El programa debe mostrar en una ventana el histograma de sus tres colores b\u00e1sicos, y adem\u00e1s guardarlo en el fichero de salida. Ejemplo de ejecuci\u00f3n: 1 ./histograma_color lena.jpg histograma.jpg Tendr\u00e1s que usar como base el c\u00f3digo anterior para calcular el histograma en un canal, y duplicar algunas l\u00edneas para hacerlo en BGR. Una vez divididos los canales con split puedes calcular el histograma de cada canal de este modo: 1 calcHist ( & bgr_planes [ 0 ], 1 , 0 , Mat (), b_hist , 1 , & histSize , 0 ); // Calculamos el histograma B.","title":"Ejercicio"},{"location":"imagenvideo.html#conversion-de-espacios-de-color","text":"OpenCV soporta m\u00e1s de 150 espacios de color. La funci\u00f3n que realiza las conversiones entre ellos es cvtColor , y admite hasta 4 par\u00e1metros: src : Imagen de entrada dst : Imagen de salida con el mismo tama\u00f1o y resoluci\u00f3n ( depth ) que la imagen de entrada. code : C\u00f3digo de conversi\u00f3n del espacio de color. Su estructura es COLOR_SPACEsrc2SPACEdst . Ejemplos: COLOR_BGR2GRAY , COLOR_YCrCb2BGR . dstCn (opcional): El n\u00famero de canales en la imagen destino. Si se omite el par\u00e1metro, se infiere del n\u00famero de canales de la imagen src . Ejemplo de uso: 1 cvtColor ( input_image , output_image , COLOR_BGR2GRAY ); Importante: La funci\u00f3n cvtColor s\u00f3lo convierte de RGB a otro espacio de color o viceversa, por lo que si queremos convertir una imagen entre dos espacios distintos a RGB, primero tenemos que pasarla a RGB y despu\u00e9s al espacio destino. Ejemplos de conversi\u00f3n: 1 2 3 4 Mat converted ; cvtColor ( image , converted , COLOR_BGR2GRAY ); // Convertir RGB a escala de grises cvtColor ( image , converted , COLOR_BGR2Luv ); // Convertir a LUV cvtColor ( image , converted , COLOR_BGR2XYZ ); // Convertir a CIEXYZ Puedes consultar en este enlace todas las f\u00f3rmulas que usa OpenCV para conversi\u00f3n entre espacios. Por ejemplo, para convertir un valor RGB en escala de grises se usa la siguiente f\u00f3rmula: 0.299 R + 0.587 G+ 0.114*B. Ten en cuenta que OpenCV a veces no usa el mismo orden de canales del est\u00e1ndar del espacio de color. Por ejemplo, RGB se codifica en OpenCV como BGR, y HSL se codifica como HLS, por lo que el \u00faltimo canal que almacena en este caso es S en lugar de L.","title":"Conversi\u00f3n de espacios de color"},{"location":"imagenvideo.html#ejercicio_2","text":"Haz un programa llamado colorLight.cpp que reciba por par\u00e1metro el nombre de una imagen y extraiga los canales que se muestran a continuaci\u00f3n, guard\u00e1ndolos exactamente con el siguiente nombre de fichero: El canal L de CIELab, fichero cielab_l.jpg . El canal V de HSV, fichero hsv_v.jpg . El canal L de HSL, fichero hsl_l.jpg . El canal Y de YCbCr, fichero ycrcb_y.jpg . Para hacer pruebas puedes usar la siguiente imagen de entrada: By I, Luc Viatour , CC BY-SA 3.0 , . Ejemplo de ejecuci\u00f3n: 1 ./colorLight Fire_breathing_2_Luc_Viatour.jpg Pista: Tras convertir las im\u00e1genes con cvtColor puedes usar split para separar sus canales.","title":"Ejercicio"},{"location":"imagenvideo.html#pseudocolor","text":"Mediante la funci\u00f3n applyColorMap tambi\u00e9n podemos pseudocolorear im\u00e1genes en escala de grises usando los mapas de color predefinidos en OpenCV. Por ejemplo: 1 2 3 Mat im_gray = imread ( \"pluto.jpg\" , IMREAD_GRAYSCALE ); Mat im_color ; applyColorMap ( im_gray , im_color , COLORMAP_JET ); Escribe un programa completo que contenga este c\u00f3digo de ejemplo (no hay que entregarlo) para visualizar el resultado de pseudocolorear la siguiente imagen de Plut\u00f3n obtenida por la sonda New Horizons:","title":"Pseudocolor"},{"location":"install.html","text":"Instalaci\u00f3n de OpenCV3 \u00b6 OpenCV es la librer\u00eda m\u00e1s usada para procesamiento de im\u00e1genes, y puede usarse en Windows, Linux, MacOS, iOS y Android. Tambi\u00e9n puede integrarse con ROS , lo que hace que OpenCV sea muy utilizado en el \u00e1mbito de la rob\u00f3tica. Est\u00e1 disponible para Python y C++. En la asignatura de Visi\u00f3n por Computador usaremos OpenCV 3.4.6 sobre Linux en C++ . Para hacer las pr\u00e1cticas puedes tambi\u00e9n instalarlo en MacOS, pero se desaconseja usar Windows. En esta parte veremos c\u00f3mo instalar OpenCV 3.4.6. Para empezar debemos descargar el c\u00f3digo fuente (en .zip ) desde aqu\u00ed . Instalaci\u00f3n en Linux (Ubuntu 16.04 y Ubuntu 20.04) \u00b6 Si queremos instalarlo en Ubuntu 16.04 o Ubuntu 20.04 debemos descomprir el c\u00f3digo fuente y compilarlo siguiendo los pasos que pueden verse en esta url . Instalaci\u00f3n en Linux (Ubuntu 18.04) \u00b6 Instalarlo en Ubuntu 18.04 es mucho m\u00e1s sencillo, simplemente hay que indicar lo siguiente desde el terminal: 1 sudo apt-get install libopencv-dev Esta instrucci\u00f3n instalar\u00e1 OpenCV 3.2, que tambi\u00e9n puedes usar en la asignatura. Instalaci\u00f3n de la m\u00e1quina virtual de la EPS \u00b6 Alternativamente puedes instalar VirtualBox en tu ordenador, y ejecutar la m\u00e1quina virtual que contiene el software de los laboratorios. En este enlace puedes encontrar las instrucciones de instalaci\u00f3n de este VDI que han creado los t\u00e9cnicos de la EPS para el curso 2019/2020. El VDI del curso 2020/2021 se publicar\u00e1 durante el curso, pero en el caso de Visi\u00f3n por Computador el software a utilizar no cambia con respecto al curso 2019/2020. Instalaci\u00f3n en Microsoft con Ubuntu Terminal \u00b6 Las instrucciones de instalaci\u00f3n son las mismas que la versi\u00f3n de Ubuntu que lleve equipada Windows. Por ejemplo, si tiene instalada la 20.04 hay que descargar el c\u00f3digo y compilarlo, si la versi\u00f3n es 18.04 hay que usar simplemente el instalador de paquetes de Ubuntu. Instalaci\u00f3n en MacOS \u00b6 Si queremos instalarlo en MacOS se recomienda usar homebrew . Para esto, debemos: Instalar XCode desde App Store (para el compilador de g++) Instalar homebrew siquiendo estas instrucciones . Desde el terminal, ejecutar: 1 2 3 brew update brew install opencv@3 brew upgrade A\u00f1adir las siguientes l\u00edneas al fichero .bash_profile que est\u00e1 en el directorio raiz del usuario (si no existe, debes crearlo): 1 2 3 export LDFLAGS = \"-L/usr/local/Cellar/opencv\\@3/3.4.5_6/lib\" export CPPFLAGS = \"-I/usr/local/Cellar/opencv\\@3/3.4.5_6/include\" export PKG_CONFIG_PATH = \"/usr/local/Cellar/opencv\\@3/3.4.5_6/lib/pkgconfig\" Si la versi\u00f3n instalada es distinta de la 3.4.5_6, debes cambiar el n\u00famero en las l\u00edneas anteriores. Por \u00faltimo, debemos ejecutar desde el terminal: 1 2 cp /usr/local/Cellar/opencv@3/3.4.5_6/lib/pkgconfig/opencv.pc /usr/local/lib/pkgconfig/ pkg-config update Hay que cerrar el terminal y volver a abrirlo para probar que se puede compilar usando opencv. Si tienes MacPorts en lugar de HomeBrew, entonces es mejor seguir este otro tutorial.","title":"Instalaci\u00f3n de OpenCV"},{"location":"install.html#instalacion-de-opencv3","text":"OpenCV es la librer\u00eda m\u00e1s usada para procesamiento de im\u00e1genes, y puede usarse en Windows, Linux, MacOS, iOS y Android. Tambi\u00e9n puede integrarse con ROS , lo que hace que OpenCV sea muy utilizado en el \u00e1mbito de la rob\u00f3tica. Est\u00e1 disponible para Python y C++. En la asignatura de Visi\u00f3n por Computador usaremos OpenCV 3.4.6 sobre Linux en C++ . Para hacer las pr\u00e1cticas puedes tambi\u00e9n instalarlo en MacOS, pero se desaconseja usar Windows. En esta parte veremos c\u00f3mo instalar OpenCV 3.4.6. Para empezar debemos descargar el c\u00f3digo fuente (en .zip ) desde aqu\u00ed .","title":"Instalaci\u00f3n de OpenCV3"},{"location":"install.html#instalacion-en-linux-ubuntu-1604-y-ubuntu-2004","text":"Si queremos instalarlo en Ubuntu 16.04 o Ubuntu 20.04 debemos descomprir el c\u00f3digo fuente y compilarlo siguiendo los pasos que pueden verse en esta url .","title":"Instalaci\u00f3n en Linux (Ubuntu 16.04 y Ubuntu 20.04)"},{"location":"install.html#instalacion-en-linux-ubuntu-1804","text":"Instalarlo en Ubuntu 18.04 es mucho m\u00e1s sencillo, simplemente hay que indicar lo siguiente desde el terminal: 1 sudo apt-get install libopencv-dev Esta instrucci\u00f3n instalar\u00e1 OpenCV 3.2, que tambi\u00e9n puedes usar en la asignatura.","title":"Instalaci\u00f3n en Linux (Ubuntu 18.04)"},{"location":"install.html#instalacion-de-la-maquina-virtual-de-la-eps","text":"Alternativamente puedes instalar VirtualBox en tu ordenador, y ejecutar la m\u00e1quina virtual que contiene el software de los laboratorios. En este enlace puedes encontrar las instrucciones de instalaci\u00f3n de este VDI que han creado los t\u00e9cnicos de la EPS para el curso 2019/2020. El VDI del curso 2020/2021 se publicar\u00e1 durante el curso, pero en el caso de Visi\u00f3n por Computador el software a utilizar no cambia con respecto al curso 2019/2020.","title":"Instalaci\u00f3n de la m\u00e1quina virtual de la EPS"},{"location":"install.html#instalacion-en-microsoft-con-ubuntu-terminal","text":"Las instrucciones de instalaci\u00f3n son las mismas que la versi\u00f3n de Ubuntu que lleve equipada Windows. Por ejemplo, si tiene instalada la 20.04 hay que descargar el c\u00f3digo y compilarlo, si la versi\u00f3n es 18.04 hay que usar simplemente el instalador de paquetes de Ubuntu.","title":"Instalaci\u00f3n en Microsoft con Ubuntu Terminal"},{"location":"install.html#instalacion-en-macos","text":"Si queremos instalarlo en MacOS se recomienda usar homebrew . Para esto, debemos: Instalar XCode desde App Store (para el compilador de g++) Instalar homebrew siquiendo estas instrucciones . Desde el terminal, ejecutar: 1 2 3 brew update brew install opencv@3 brew upgrade A\u00f1adir las siguientes l\u00edneas al fichero .bash_profile que est\u00e1 en el directorio raiz del usuario (si no existe, debes crearlo): 1 2 3 export LDFLAGS = \"-L/usr/local/Cellar/opencv\\@3/3.4.5_6/lib\" export CPPFLAGS = \"-I/usr/local/Cellar/opencv\\@3/3.4.5_6/include\" export PKG_CONFIG_PATH = \"/usr/local/Cellar/opencv\\@3/3.4.5_6/lib/pkgconfig\" Si la versi\u00f3n instalada es distinta de la 3.4.5_6, debes cambiar el n\u00famero en las l\u00edneas anteriores. Por \u00faltimo, debemos ejecutar desde el terminal: 1 2 cp /usr/local/Cellar/opencv@3/3.4.5_6/lib/pkgconfig/opencv.pc /usr/local/lib/pkgconfig/ pkg-config update Hay que cerrar el terminal y volver a abrirlo para probar que se puede compilar usando opencv. Si tienes MacPorts en lugar de HomeBrew, entonces es mejor seguir este otro tutorial.","title":"Instalaci\u00f3n en MacOS"},{"location":"intro.html","text":"Tema 1- Introducci\u00f3n a OpenCV \u00b6 En este tema veremos las funcionalidades b\u00e1sicas de OpenCV: cargar una imagen o un v\u00eddeo, mostrarlo por pantalla y guardar ficheros. Carga y visualizaci\u00f3n de im\u00e1genes \u00b6 Vamos a comprobar que la instalaci\u00f3n se ha hecho de forma correcta compilando el siguiente programa de ejemplo. 1 2 3 4 5 6 7 8 9 10 11 12 13 14 15 16 17 18 19 20 21 22 23 24 25 26 27 #include <opencv2/opencv.hpp> // Incluimos OpenCV #include <iostream> using namespace cv ; using namespace std ; int main ( int argc , char * argv [] ) { if ( argc != 2 ) { cout << \" Uso: display_image <imagen>\" << endl ; return - 1 ; } Mat image = imread ( argv [ 1 ]); // Leer fichero de imagen if ( ! image . data ) { // Comprobar lectura cout << \"Could not open or find the image\" << endl ; return - 1 ; } namedWindow ( \"Ventana\" , WINDOW_AUTOSIZE ); // Crear una ventana imshow ( \"Ventana\" , image ); // Mostrar la imagen en la ventana waitKey ( 0 ); // Esperar a pulsar una tecla en la ventana return 0 ; } Llamamos a este fichero lectura.cpp y desde un terminal ejecutamos: 1 g++ lectura.cpp -o lectura ` pkg-config opencv --cflags --libs ` Si todo va bien deber\u00eda crearse un fichero ejecutable llamado lectura . Descargamos esta imagen de ejemplo y ejecutamos el programa de la siguiente forma: 1 ./lectura lena.jpg Como puede verse, se crea una ventana con la imagen que se cerrar\u00e1 cuando pulsamos una tecla. Vamos a analizar este c\u00f3digo en detalle. En la primera l\u00ednea, el programa incluye OpenCV, y despu\u00e9s se a\u00f1ade el espacio de nombres cv . Esto tenemos que hacerlo siempre que queramos usar la librer\u00eda. En ocasiones es posible que necesitemos incluir alg\u00fan fichero de cabecera adicional de OpenCV, pero en la mayor\u00eda de casos no es necesario. Preparamos la funci\u00f3n main para recibir par\u00e1metros, y comprobamos que el usuario ha introducido uno (si no es as\u00ed, damos un mensaje de error y terminamos). A continuaci\u00f3n creamos una matriz ( Mat ) para guardar la imagen, que leemos con imread usando el nombre de fichero que se le pasa por par\u00e1metro. Cada vez que se intenta cargar una imagen es importante comprobar que se ha leido correctamente. En este punto ya tenemos la imagen cargada en una matriz. Podr\u00edamos procesarla, pero de momento s\u00f3lo vamos a mostrarla en una ventana. Para ello creamos primero una ventana con el nombre \"Ventana\" y tama\u00f1o variable usando la funci\u00f3n namedWindow . En la siguiente l\u00ednea llamamos a la funci\u00f3n imshow para mostrar la imagen en la ventana. En este ejemplo la llamada a namedWindow puede omitirse sin consecuencias. Si imshow recibe como primer par\u00e1metro el nombre de una ventana que todav\u00eda no est\u00e1 creada, \u00e9sta se crea autom\u00e1ticamente con los par\u00e1metros por defecto. Siempre que mostremos una imagen en pantalla debemos llamar a la funci\u00f3n waitKey(0) para que la ventana se cierre cuando se pulse una tecla. Si no a\u00f1adimos esta l\u00ednea, la ventana no llegar\u00e1 a aparecer (mejor dicho, aparecer\u00e1 y se cerrar\u00e1 de inmediato). Carga de im\u00e1genes \u00b6 La siguiente instrucci\u00f3n carga en una matriz la imagen cuyo nombre recibe por par\u00e1metro. 1 Mat image = imread ( argv [ 1 ]); Como sabes, las im\u00e1genes digitales se representan con matrices. Los formatos principales de im\u00e1genes soportadas por OpenCV son: Windows bitmaps ( bmp , dib ) Portable image formats ( pbm , pgm , ppm ) Sun rasters ( sr , ras ) Tambi\u00e9n soporta otros formatos a trav\u00e9s de librer\u00edas auxiliares: JPEG ( jpeg , jpg , jpe ) JPEG 2000 ( jp2 ) Portable Network Graphics ( png ) TIFF ( tiff , tif ) WebP ( webp ). La funci\u00f3n imread tiene un par\u00e1metro opcional. Cuando carguemos una imagen en escala de grises debemos usar IMREAD_GRAYSCALE : 1 2 // Cargamos la imagen (tanto si es en color como si no) en escala de grises Mat image = imread ( \"lena.jpg\" , IMREAD_GRAYSCALE ); Esto es porque la opci\u00f3n por defecto es IMREAD_COLOR , y por tanto se cargar\u00e1 la imagen con 3 canales independientemente de que est\u00e9 o no en escala de grises. Podemos ver todos los modos de apertura con imread en este enlace . La clase Mat \u00b6 La clase Mat contiene los valores num\u00e9ricos de la matriz que almacena, y adem\u00e1s una cabecera (con el tipo de datos que contiene, las dimensiones de la matriz, etc). Esta clase de C++ tiene su constructor y destructor, por lo que no hace falta gestionar manualmente su memoria. La clase Mat sustituye al registro de C llamado IplImage que se usaba en las primeras versiones de OpenCV, y que se desaconseja usar actualmente ya que necesita liberar a mano la memoria. En OpenCV podemos crear una matriz arbitraria, contenga o no los datos de una imagen: 1 2 3 // Para crear una matriz: Mat M(filas, columnas, tipo, valores iniciales) Mat m ( 10 , 10 , CV_8UC3 , Scalar ( 0 , 0 , 255 )); cout << \"m = \" << endl << \" \" << m << endl << endl ; Como puede verse, los dos primeros par\u00e1metros son las filas y columnas. El tipo de dato en este ejemplo es CV_8UC3 . Significa que tenemos datos de 8 bits (entre 0 y 255) de tipo unsigned char , y con 3 canales. Por tanto, se trata de una matriz preparada para almacenar una imagen en color (por ejemplo, RGB). Es importante resaltar que cuando OpenCV carga una imagen RGB, internamente la almacena como BGR. Es decir, el canal 0 es el azul, el canal 1 el verde, y el canal 2 el rojo. Por tanto, en el ejemplo anterior hemos creado una imagen de 10x10 p\u00edxeles y color rojo. Los formatos m\u00e1s comunes son CV_8UC3 para im\u00e1genes en color, y CV_8UC1 para escala de grises, pero hay m\u00e1s. El rango de valores que representa la matriz puede ser: CV_8U : Unsigned char (0~255) CV_8S : Signed char (-128~127) CV_16U : Unsigned short (0~65535) CV_16S : Signed short (-32768~32767) CV_32S : Signed int (-2147483648~2147483647) CV_32F : Signed float (-1.18*10-38~3.40*10-38) CV_64F : Signed double (mucho!) El n\u00famero de canales puede ser C1 , C2 , C3 y C4 con cualquier tipo de dato. En la 